{"learner":{"attributes":{"scikit_learn":"{\"_estimator_type\": \"classifier\"}"},"feature_names":[],"feature_types":[],"gradient_booster":{"model":{"cats":{"enc":[],"feature_segments":[],"sorted_idx":[]},"gbtree_model_param":{"num_parallel_tree":"1","num_trees":"150"},"iteration_indptr":[0,1,2,3,4,5,6,7,8,9,10,11,12,13,14,15,16,17,18,19,20,21,22,23,24,25,26,27,28,29,30,31,32,33,34,35,36,37,38,39,40,41,42,43,44,45,46,47,48,49,50,51,52,53,54,55,56,57,58,59,60,61,62,63,64,65,66,67,68,69,70,71,72,73,74,75,76,77,78,79,80,81,82,83,84,85,86,87,88,89,90,91,92,93,94,95,96,97,98,99,100,101,102,103,104,105,106,107,108,109,110,111,112,113,114,115,116,117,118,119,120,121,122,123,124,125,126,127,128,129,130,131,132,133,134,135,136,137,138,139,140,141,142,143,144,145,146,147,148,149,150],"tree_info":[0,0,0,0,0,0,0,0,0,0,0,0,0,0,0,0,0,0,0,0,0,0,0,0,0,0,0,0,0,0,0,0,0,0,0,0,0,0,0,0,0,0,0,0,0,0,0,0,0,0,0,0,0,0,0,0,0,0,0,0,0,0,0,0,0,0,0,0,0,0,0,0,0,0,0,0,0,0,0,0,0,0,0,0,0,0,0,0,0,0,0,0,0,0,0,0,0,0,0,0,0,0,0,0,0,0,0,0,0,0,0,0,0,0,0,0,0,0,0,0,0,0,0,0,0,0,0,0,0,0,0,0,0,0,0,0,0,0,0,0,0,0,0,0,0,0,0,0,0,0],"trees":[{"base_weights":[2.6475608E-2,1.0684623E0,-3.359097E-1,-1.0981736E-1,1.1741225E0,8.356573E-1,-5.882238E-1,1.3575628E0,1.6974403E-1,-7.6078035E-2,9.668201E-1,1.0205269E0,-7.526045E-1,-4.1938383E-2,1.398688E0,8.105337E-1,-1.3815875E0,-7.113848E-2,1.0931271E0,-9.008342E-2,1.2816164E0,4.4354537E-1,-9.793238E-1,-1.2214359E-2,1.4298184E0,-6.629064E-1,1.2764397E0,4.3372925E-2,-1.1369157E-1,-7.794449E-2,1.1793563E0,-3.078126E-2,1.4021903E0,-1.8706834E0,7.2458E-1,5.312021E-1,-1.1806799E0,7.172729E-4,1.4509717E0,4.3372925E-2,-9.008342E-2,1.6381968E-2,6.768618E-2,-3.2314483E-2,1.2650257E0,1.6381968E-2,7.213645E-2,-3.078126E-2,-1.0494097E-1,-1.0199704E-1,9.672112E-1,-7.6078035E-2,8.235609E-1,-1.00023024E-1,-1.4503815E0,7.172729E-4,7.363859E-2,-2.3070805E-2,6.690039E-2,-7.113848E-2,5.905232E-2,-7.113848E-2,5.7103474E-2,-9.42049E-2,2.001813E-2,1.2007613E-2,-8.4109485E-2],"categories":[],"categories_nodes":[],"categories_segments":[],"categories_sizes":[],"default_left":[0,0,0,0,0,0,0,0,0,0,0,0,0,0,0,0,0,0,0,0,0,0,0,0,0,0,0,0,0,0,0,0,0,0,0,0,0,0,0,0,0,0,0,0,0,0,0,0,0,0,0,0,0,0,0,0,0,0,0,0,0,0,0,0,0,0,0],"id":0,"left_children":[1,3,5,-1,7,9,11,13,15,-1,17,19,21,-1,23,25,27,-1,29,-1,31,33,35,-1,37,39,41,-1,-1,-1,43,-1,45,47,49,51,53,-1,55,-1,-1,-1,-1,-1,57,-1,-1,-1,-1,-1,59,-1,61,63,65,-1,-1,-1,-1,-1,-1,-1,-1,-1,-1,-1,-1],"loss_changes":[1.663929E2,4.1801376E1,9.71555E1,0E0,2.0181717E1,1.9514523E1,7.207551E1,9.621796E0,1.9264275E1,0E0,1.8425453E1,2.104147E1,6.6936905E1,0E0,5.0645905E0,1.014618E1,1.3421149E1,0E0,1.4108139E1,0E0,6.3200264E0,2.721596E1,6.34234E1,0E0,2.692627E0,8.38174E0,3.3626556E-1,0E0,0E0,0E0,9.033936E0,0E0,5.17601E-1,2.0694733E-2,2.6239302E1,1.6241278E1,5.304193E1,0E0,2.774994E0,0E0,0E0,0E0,0E0,0E0,6.982483E0,0E0,0E0,0E0,0E0,0E0,1.9024105E1,0E0,1.7730026E1,3.4250854E1,5.7605194E1,0E0,0E0,0E0,0E0,0E0,0E0,0E0,0E0,0E0,0E0,0E0,0E0],"parents":[2147483647,0,0,1,1,2,2,4,4,5,5,6,6,7,7,8,8,10,10,11,11,12,12,14,14,15,15,16,16,18,18,20,20,21,21,22,22,24,24,25,25,26,26,30,30,32,32,33,33,34,34,35,35,36,36,38,38,44,44,50,50,52,52,53,53,54,54],"right_children":[2,4,6,-1,8,10,12,14,16,-1,18,20,22,-1,24,26,28,-1,30,-1,32,34,36,-1,38,40,42,-1,-1,-1,44,-1,46,48,50,52,54,-1,56,-1,-1,-1,-1,-1,58,-1,-1,-1,-1,-1,60,-1,62,64,66,-1,-1,-1,-1,-1,-1,-1,-1,-1,-1,-1,-1],"split_conditions":[1.95E2,1E0,1.79E2,-1.0981736E-1,2.36E2,1E0,1.74E2,2E0,2.36E2,-7.6078035E-2,1E0,1E0,1.73E2,-4.1938383E-2,3E0,1E0,1.17E2,-7.113848E-2,1E0,-9.008342E-2,1E1,3E0,1.59E2,-1.2214359E-2,1.05E2,1.92E2,1.32E2,4.3372925E-2,-1.1369157E-1,-7.794449E-2,1E0,-3.078126E-2,1.96E2,1.96E2,1E0,6.9E1,1.97E2,7.172729E-4,1E0,4.3372925E-2,-9.008342E-2,1.6381968E-2,6.768618E-2,-3.2314483E-2,1E0,1.6381968E-2,7.213645E-2,-3.078126E-2,-1.0494097E-1,-1.0199704E-1,1E0,-7.6078035E-2,1.8E2,1E2,1.69E2,7.172729E-4,7.363859E-2,-2.3070805E-2,6.690039E-2,-7.113848E-2,5.905232E-2,-7.113848E-2,5.7103474E-2,-9.42049E-2,2.001813E-2,1.2007613E-2,-8.4109485E-2],"split_indices":[1889,2006,3151,0,2717,1534,3086,1439,289,0,2483,3219,3502,0,885,1982,213,0,2006,0,302,1982,3436,0,44,97,72,0,0,0,882,0,62,0,3988,102,1502,0,174,0,0,0,0,0,3636,0,0,0,0,0,1406,0,3543,1601,1226,0,0,0,0,0,0,0,0,0,0,0,0],"split_type":[0,0,0,0,0,0,0,0,0,0,0,0,0,0,0,0,0,0,0,0,0,0,0,0,0,0,0,0,0,0,0,0,0,0,0,0,0,0,0,0,0,0,0,0,0,0,0,0,0,0,0,0,0,0,0,0,0,0,0,0,0,0,0,0,0,0,0],"sum_hessian":[4.387079E2,1.1270177E2,3.260061E2,2.9127693E0,1.09789E2,5.735915E1,2.6864694E2,9.253644E1,1.7252558E1,2.4646509E0,5.48945E1,2.4422451E1,2.442245E2,1.3443551E0,9.1192085E1,1.2547314E1,4.7052426E0,2.2405918E0,5.2653908E1,1.5684142E0,2.2854036E1,3.8762238E1,2.0546227E2,1.5684142E0,8.962367E1,2.9127693E0,9.634544E0,1.3443551E0,3.3608878E0,1.1202959E0,5.153361E1,1.1202959E0,2.173374E1,3.5849469E0,3.517729E1,2.3974333E1,1.8148793E2,1.3443551E0,8.827932E1,1.3443551E0,1.5684142E0,1.1202959E0,8.514249E0,2.0165327E0,4.951708E1,1.1202959E0,2.0613445E1,1.1202959E0,2.4646509E0,2.2405918E0,3.29367E1,2.4646509E0,2.1509682E1,3.6521645E1,1.449663E2,1.3443551E0,8.693496E1,1.7924734E0,4.7724606E1,2.2405918E0,3.0696108E1,2.2405918E0,1.9269089E1,7.393953E0,2.9127693E1,1.7476616E1,1.2748967E2],"tree_param":{"num_deleted":"0","num_feature":"4096","num_nodes":"67","size_leaf_vector":"1"}},{"base_weights":[2.4064105E-2,1.0846841E0,-3.0640575E-1,1.3467705E0,8.116617E-2,7.796923E-1,-5.4742277E-1,-2.917509E-1,1.4152062E0,-1.2465588E0,7.229459E-1,-9.09239E-2,8.903361E-1,1.1260207E0,-6.967798E-1,4.7642164E-2,-8.0805615E-2,-1.2102521E-2,1.4516068E0,-1.1536815E-1,3.8305964E-2,1.2377347E0,-1.1795416E0,1.1216726E0,-1.4465961E-1,-4.9329214E-2,1.3296627E0,1.0041823E0,-8.4847176E-1,1.5413137E-2,7.320017E-2,1.4186431E-4,6.8916224E-2,1.56859E-2,-9.415264E-2,-3.196728E-2,1.2115048E0,-1.8416014E0,9.2643183E-1,-4.281937E-4,7.093877E-2,7.02611E-2,-3.33321E-1,1.5310277E-1,-1.0981306E0,-3.0678147E-2,1.3086054E0,-2.9799152E-2,-1.0289283E-1,6.3568525E-2,-3.0191496E-2,4.2229142E-2,-9.116541E-2,-8.787031E-1,8.860442E-1,3.1174898E-1,-1.3046491E0,-3.0025372E-2,6.859165E-2,2.6986662E-2,-9.0798624E-2,-7.307892E-2,5.8611777E-2,-1.0644709E-1,3.7156556E-2,2.8097194E-3,-7.6612614E-2],"categories":[],"categories_nodes":[],"categories_segments":[],"categories_sizes":[],"default_left":[0,0,0,0,0,0,0,0,0,0,0,0,0,0,0,0,0,0,0,0,0,0,0,0,0,0,0,0,0,0,0,0,0,0,0,0,0,0,0,0,0,0,0,0,0,0,0,0,0,0,0,0,0,0,0,0,0,0,0,0,0,0,0,0,0,0,0],"id":1,"left_children":[1,3,5,7,9,11,13,15,17,19,21,-1,23,25,27,-1,-1,-1,29,-1,-1,31,33,35,37,-1,39,41,43,-1,-1,-1,-1,-1,-1,-1,45,47,49,-1,-1,-1,51,53,55,-1,57,-1,-1,-1,-1,-1,-1,59,61,63,65,-1,-1,-1,-1,-1,-1,-1,-1,-1,-1],"loss_changes":[1.5415413E2,2.7368935E1,8.821951E1,9.694946E0,2.0243668E1,1.9247204E1,6.953375E1,8.376683E0,5.154999E0,1.8344126E1,1.7067013E1,0E0,1.4405605E1,1.1172506E1,6.616821E1,0E0,0E0,0E0,6.551056E-1,0E0,0E0,2.2582645E0,4.693815E0,8.484238E0,2.3068441E1,0E0,2.5559578E0,1.1831718E1,5.841942E1,0E0,0E0,0E0,0E0,0E0,0E0,0E0,9.08149E0,8.878136E-2,4.9221544E0,0E0,0E0,0E0,1.1535156E1,3.659441E1,5.4737595E1,0E0,6.216362E0,0E0,0E0,0E0,0E0,0E0,0E0,2.7797459E1,2.065192E1,2.7532896E1,5.0556915E1,0E0,0E0,0E0,0E0,0E0,0E0,0E0,0E0,0E0,0E0],"parents":[2147483647,0,0,1,1,2,2,3,3,4,4,5,5,6,6,7,7,8,8,9,9,10,10,12,12,13,13,14,14,18,18,21,21,22,22,23,23,24,24,26,26,27,27,28,28,36,36,37,37,38,38,42,42,43,43,44,44,46,46,53,53,54,54,55,55,56,56],"right_children":[2,4,6,8,10,12,14,16,18,20,22,-1,24,26,28,-1,-1,-1,30,-1,-1,32,34,36,38,-1,40,42,44,-1,-1,-1,-1,-1,-1,-1,46,48,50,-1,-1,-1,52,54,56,-1,58,-1,-1,-1,-1,-1,-1,60,62,64,66,-1,-1,-1,-1,-1,-1,-1,-1,-1,-1],"split_conditions":[1.67E2,2.47E2,1.81E2,1E0,2.07E2,2E0,1.73E2,1.77E2,2E0,2.5E2,2.55E2,-9.09239E-2,2.54E2,1E0,1.55E2,4.7642164E-2,-8.0805615E-2,-1.2102521E-2,1E0,-1.1536815E-1,3.8305964E-2,1.95E2,1.67E2,2.3E1,2.36E2,-4.9329214E-2,8.9E1,2.5E2,1.73E2,1.5413137E-2,7.320017E-2,1.4186431E-4,6.8916224E-2,1.56859E-2,-9.415264E-2,-3.196728E-2,5E0,1.78E2,2.41E2,-4.281937E-4,7.093877E-2,7.02611E-2,2.45E2,1.45E2,1.23E2,-3.0678147E-2,5E0,-2.9799152E-2,-1.0289283E-1,6.3568525E-2,-3.0191496E-2,4.2229142E-2,-9.116541E-2,2.06E2,1E1,1.77E2,1.63E2,-3.0025372E-2,6.859165E-2,2.6986662E-2,-9.0798624E-2,-7.307892E-2,5.8611777E-2,-1.0644709E-1,3.7156556E-2,2.8097194E-3,-7.6612614E-2],"split_indices":[3185,805,944,2356,1039,799,1009,223,2262,420,3903,0,2278,2369,2205,0,0,0,554,0,0,1496,83,2584,191,0,334,1638,1014,0,0,0,0,0,0,0,1828,365,110,0,0,0,12,94,1638,0,1033,0,0,0,0,0,0,2780,2484,1137,295,0,0,0,0,0,0,0,0,0,0],"split_type":[0,0,0,0,0,0,0,0,0,0,0,0,0,0,0,0,0,0,0,0,0,0,0,0,0,0,0,0,0,0,0,0,0,0,0,0,0,0,0,0,0,0,0,0,0,0,0,0,0,0,0,0,0,0,0,0,0,0,0,0,0,0,0,0,0,0,0],"sum_hessian":[4.3786014E2,1.0347668E2,3.3438345E2,8.17771E1,2.169958E1,6.0321392E1,2.7406207E2,3.147797E0,7.86293E1,6.76392E0,1.4935659E1,1.8334055E0,5.8487984E1,2.1920355E1,2.5214171E2,1.7673872E0,1.38041E0,1.5684999E0,7.706081E1,4.3334913E0,2.4304285E0,1.2029928E1,2.9057314E0,4.7734818E1,1.075317E1,1.5891932E0,2.0331163E1,2.0184755E1,2.3195695E2,1.1040183E0,7.595679E1,1.3338633E0,1.0696065E1,1.1079935E0,1.7977378E0,2.0199425E0,4.5714874E1,3.882583E0,6.870587E0,1.3257636E0,1.90054E1,1.5489672E1,4.6950836E0,4.6359577E1,1.8559738E2,2.040652E0,4.367422E1,1.129966E0,2.752617E0,5.744819E0,1.1257676E0,2.864067E0,1.8310167E0,1.9171637E1,2.7187943E1,2.3647682E1,1.6194969E2,1.127663E0,4.254656E1,7.796612E0,1.1375025E1,2.5079844E0,2.4679956E1,2.9607983E0,2.0686884E1,2.3313135E1,1.3863655E2],"tree_param":{"num_deleted":"0","num_feature":"4096","num_nodes":"67","size_leaf_vector":"1"}},{"base_weights":[2.268743E-2,1.0076946E0,-3.0609447E-1,-9.883229E-2,1.1120303E0,7.925673E-1,-5.347304E-1,1.2932332E0,1.521654E-1,1.048006E0,-4.3125868E-1,9.733698E-1,-6.824152E-1,-3.8367838E-2,1.3342706E0,1.178945E0,-7.009917E-1,-7.501514E-2,1.1433609E0,-1.9774487E0,6.0408212E-2,-8.2336076E-2,1.2312634E0,5.298281E-1,-8.702702E-1,-1.2006328E-2,1.3655643E0,6.3412406E-2,1.4726646E-2,9.51627E-1,-1.7429316E0,-5.7008486E-2,1.2618456E0,-2.9583279E-2,-1.0926228E-1,-3.0408219E-2,1.3527747E0,-9.747418E-1,1.0253795E0,2.2969651E-1,-1.0727762E0,-1.6670965E-3,1.3873338E0,5.329899E-2,1.4973113E-2,1.6609384E-2,-1.1056359E-1,-3.1093502E-2,1.3666154E0,1.412673E-2,6.973209E-2,4.2286836E-2,-1.9691141E0,-5.0293207E-2,1.1969178E0,-1.1284266E0,6.680595E-1,1.7384252E-1,-1.2671918E0,-1.5178265E-3,7.048678E-2,-3.5494132E-4,7.0547216E-2,-2.878118E-2,-1.08657256E-1,-3.0198384E-2,6.5460294E-2,5.1025826E-2,-9.991469E-2,-7.115214E-2,4.733835E-2,-4.4538196E-2,4.4985276E-2,6.789088E-3,-7.158987E-2],"categories":[],"categories_nodes":[],"categories_segments":[],"categories_sizes":[],"default_left":[0,0,0,0,0,0,0,0,0,0,0,0,0,0,0,0,0,0,0,0,0,0,0,0,0,0,0,0,0,0,0,0,0,0,0,0,0,0,0,0,0,0,0,0,0,0,0,0,0,0,0,0,0,0,0,0,0,0,0,0,0,0,0,0,0,0,0,0,0,0,0,0,0,0,0],"id":2,"left_children":[1,3,5,-1,7,9,11,13,15,17,19,21,23,-1,25,27,29,-1,31,33,-1,-1,35,37,39,-1,41,-1,-1,43,45,-1,47,-1,-1,-1,49,51,53,55,57,-1,59,-1,-1,-1,-1,-1,61,-1,-1,-1,63,-1,65,67,69,71,73,-1,-1,-1,-1,-1,-1,-1,-1,-1,-1,-1,-1,-1,-1,-1,-1],"loss_changes":[1.4203561E2,3.637178E1,8.30356E1,0E0,1.8358826E1,1.8287804E1,6.1428337E1,8.601349E0,1.6660141E1,1.325602E1,2.9158587E1,1.874861E1,5.718232E1,0E0,4.674637E0,3.0377483E-1,1.9737572E1,0E0,1.3978809E1,3.8129234E-1,0E0,0E0,5.986004E0,2.6380085E1,4.8368393E1,0E0,2.6851654E0,0E0,0E0,3.1790733E-2,7.3359528E0,0E0,9.639427E0,0E0,0E0,0E0,5.908165E-1,1.7860878E1,1.0296108E1,2.1241371E1,4.4481293E1,0E0,2.753418E0,0E0,0E0,0E0,0E0,0E0,2.5982285E0,0E0,0E0,0E0,4.7960663E-1,0E0,5.748867E0,1.8430977E1,1.6875338E1,2.052052E1,3.6706955E1,0E0,0E0,0E0,0E0,0E0,0E0,0E0,0E0,0E0,0E0,0E0,0E0,0E0,0E0,0E0,0E0],"parents":[2147483647,0,0,1,1,2,2,4,4,5,5,6,6,7,7,8,8,9,9,10,10,11,11,12,12,14,14,15,15,16,16,18,18,19,19,22,22,23,23,24,24,26,26,29,29,30,30,32,32,36,36,37,37,38,38,39,39,40,40,42,42,48,48,52,52,54,54,55,55,56,56,57,57,58,58],"right_children":[2,4,6,-1,8,10,12,14,16,18,20,22,24,-1,26,28,30,-1,32,34,-1,-1,36,38,40,-1,42,-1,-1,44,46,-1,48,-1,-1,-1,50,52,54,56,58,-1,60,-1,-1,-1,-1,-1,62,-1,-1,-1,64,-1,66,68,70,72,74,-1,-1,-1,-1,-1,-1,-1,-1,-1,-1,-1,-1,-1,-1,-1,-1],"split_conditions":[1.95E2,1E0,1.79E2,-9.883229E-2,2.36E2,2.55E2,1.74E2,2E0,1.77E2,1E0,2.54E2,1E0,1.63E2,-3.8367838E-2,3E0,2.54E2,1.99E2,-7.501514E-2,1E0,1.85E2,6.0408212E-2,-8.2336076E-2,5E0,2.06E2,1.8E2,-1.2006328E-2,6E0,6.3412406E-2,1.4726646E-2,2.32E2,2.05E2,-5.7008486E-2,1E0,-2.9583279E-2,-1.0926228E-1,-3.0408219E-2,1E0,1.95E2,1.28E2,1.28E2,1.96E2,-1.6670965E-3,7E0,5.329899E-2,1.4973113E-2,1.6609384E-2,-1.1056359E-1,-3.1093502E-2,9E0,1.412673E-2,6.973209E-2,4.2286836E-2,1.91E2,-5.0293207E-2,4.5E1,1.8E2,1.85E2,2.27E2,1.7E2,-1.5178265E-3,7.048678E-2,-3.5494132E-4,7.0547216E-2,-2.878118E-2,-1.08657256E-1,-3.0198384E-2,6.5460294E-2,5.1025826E-2,-9.991469E-2,-7.115214E-2,4.733835E-2,-4.4538196E-2,4.4985276E-2,6.789088E-3,-7.158987E-2],"split_indices":[1889,2006,3151,0,2717,2548,3086,1439,497,711,881,3219,456,0,885,79,1190,0,2700,298,0,0,368,1455,2869,0,2171,0,0,5,46,0,3934,0,0,0,1219,2598,2394,123,1949,0,2199,0,0,0,0,0,817,0,0,0,1956,0,2196,3156,2469,3051,1400,0,0,0,0,0,0,0,0,0,0,0,0,0,0,0,0],"split_type":[0,0,0,0,0,0,0,0,0,0,0,0,0,0,0,0,0,0,0,0,0,0,0,0,0,0,0,0,0,0,0,0,0,0,0,0,0,0,0,0,0,0,0,0,0,0,0,0,0,0,0,0,0,0,0,0,0,0,0,0,0,0,0,0,0,0,0,0,0,0,0,0,0,0,0],"sum_hessian":[4.366287E2,1.0875162E2,3.2787708E2,3.0674496E0,1.0568417E2,5.6054146E1,2.718229E2,8.8609245E1,1.7074924E1,4.6493595E1,9.560549E0,2.3746105E1,2.4807681E2,1.3846296E0,8.722462E1,7.575684E0,9.499241E0,1.1455463E0,4.534805E1,4.814068E0,4.746481E0,1.6452973E0,2.210081E1,3.3040886E1,2.1503593E2,1.5698909E0,8.5654724E1,6.4866915E0,1.0889928E0,3.7067113E0,5.7925296E0,1.811548E0,4.3536503E1,1.1294132E0,3.6846547E0,1.1213236E0,2.0979485E1,7.946653E0,2.5094234E1,3.3412506E1,1.8162343E2,1.3043585E0,8.4350365E1,2.613862E0,1.0928494E0,1.1201385E0,4.6723914E0,2.0338154E0,4.1502686E1,1.0815045E0,1.989798E1,2.8600333E0,5.0866194E0,1.5754145E0,2.351882E1,7.768912E0,2.5643593E1,2.4517801E1,1.5710562E2,1.3066101E0,8.3043755E1,1.3236555E0,4.017903E1,1.1376891E0,3.9489303E0,1.123372E0,2.2395449E1,2.188701E0,5.580211E0,2.5329993E0,2.3110594E1,9.847509E0,1.4670292E1,1.651547E1,1.4059015E2],"tree_param":{"num_deleted":"0","num_feature":"4096","num_nodes":"75","size_leaf_vector":"1"}},{"base_weights":[2.126281E-2,1.0311849E0,-2.815654E-1,1.2385223E0,-1.5951894E-1,7.362996E-1,-5.0005877E-1,-4.027723E-2,1.2808094E0,1.038519E0,-1.2965252E0,-9.622844E-1,9.0080726E-1,1.073564E0,-6.341095E-1,-3.8664293E-2,1.3239303E0,-7.827876E-4,6.1939713E-2,4.6188585E-2,-1.9904555E0,4.44703E-2,-9.673108E-2,-7.311013E-2,1.0548698E0,-4.6034966E-2,1.2762567E0,9.4948715E-1,-7.6848686E-1,-2.9712556E-2,1.3574249E0,-2.8538465E-2,-1.0861804E-1,-7.101504E-1,1.1848663E0,-2.4541935E-3,6.8379E-2,6.7407064E-2,-3.29553E-1,3.4539533E-1,-9.510174E-1,-1.2414199E-2,1.3914691E0,4.285113E-2,-8.66618E-2,-2.2242706E-2,1.2560236E0,-8.4764056E-2,4.024906E-2,-1.4418229E0,6.622976E-1,3.3107048E-1,-1.1631594E0,1.883377E-2,7.072974E-2,-3.020288E-2,6.5712504E-2,-9.941592E-2,1.7360384E-2,-4.690045E-2,5.5352874E-2,-4.2762205E-2,4.8459835E-2,-9.332932E-2,-3.9403226E-2],"categories":[],"categories_nodes":[],"categories_segments":[],"categories_sizes":[],"default_left":[0,0,0,0,0,0,0,0,0,0,0,0,0,0,0,0,0,0,0,0,0,0,0,0,0,0,0,0,0,0,0,0,0,0,0,0,0,0,0,0,0,0,0,0,0,0,0,0,0,0,0,0,0,0,0,0,0,0,0,0,0,0,0,0,0],"id":3,"left_children":[1,3,5,7,9,11,13,-1,15,17,19,21,23,25,27,-1,29,-1,-1,-1,31,-1,-1,-1,33,-1,35,37,39,-1,41,-1,-1,43,45,-1,-1,-1,47,49,51,-1,53,-1,-1,-1,55,-1,-1,57,59,61,63,-1,-1,-1,-1,-1,-1,-1,-1,-1,-1,-1,-1],"loss_changes":[1.3356525E2,2.5068108E1,7.51016E1,8.457977E0,2.2904654E1,1.7573936E1,5.9164604E1,0E0,8.513535E0,1.7636156E0,1.5034654E1,1.2096479E1,2.1575111E1,1.012248E1,5.5230087E1,0E0,6.151428E0,0E0,0E0,0E0,5.270977E-1,0E0,0E0,0E0,1.2827705E1,0E0,2.5497627E0,1.0886919E1,4.8439804E1,0E0,4.8316345E0,0E0,0E0,8.233723E0,6.244713E0,0E0,0E0,0E0,1.0150179E1,2.0240215E1,5.5756027E1,0E0,1.3566284E0,0E0,0E0,0E0,5.9104004E0,0E0,0E0,6.0120792E0,2.211154E1,2.3298483E1,4.4676544E1,0E0,0E0,0E0,0E0,0E0,0E0,0E0,0E0,0E0,0E0,0E0,0E0],"parents":[2147483647,0,0,1,1,2,2,3,3,4,4,5,5,6,6,8,8,9,9,10,10,11,11,12,12,13,13,14,14,16,16,20,20,24,24,26,26,27,27,28,28,30,30,33,33,34,34,38,38,39,39,40,40,42,42,46,46,49,49,50,50,51,51,52,52],"right_children":[2,4,6,8,10,12,14,-1,16,18,20,22,24,26,28,-1,30,-1,-1,-1,32,-1,-1,-1,34,-1,36,38,40,-1,42,-1,-1,44,46,-1,-1,-1,48,50,52,-1,54,-1,-1,-1,56,-1,-1,58,60,62,64,-1,-1,-1,-1,-1,-1,-1,-1,-1,-1,-1,-1],"split_conditions":[1.67E2,2.47E2,1.81E2,2E0,2.38E2,8E0,1.73E2,-4.027723E-2,1E0,2.04E2,5.6E1,1.55E2,1E0,1E0,1.55E2,-3.8664293E-2,2E0,-7.827876E-4,6.1939713E-2,4.6188585E-2,1.38E2,4.44703E-2,-9.673108E-2,-7.311013E-2,1.5E1,-4.6034966E-2,1.7E1,2.5E2,1.75E2,-2.9712556E-2,2E0,-2.8538465E-2,-1.0861804E-1,1.81E2,1E0,-2.4541935E-3,6.8379E-2,6.7407064E-2,2.25E2,1.85E2,1.73E2,-1.2414199E-2,1E0,4.285113E-2,-8.66618E-2,-2.2242706E-2,1.4E1,-8.4764056E-2,4.024906E-2,2.35E2,1.96E2,2.17E2,7.8E1,1.883377E-2,7.072974E-2,-3.020288E-2,6.5712504E-2,-9.941592E-2,1.7360384E-2,-4.690045E-2,5.5352874E-2,-4.2762205E-2,4.8459835E-2,-9.332932E-2,-3.9403226E-2],"split_indices":[3185,1045,944,780,3436,2153,1009,0,1283,1866,483,494,3384,2369,2205,0,3148,0,0,0,4007,0,0,0,1612,0,3871,1638,468,0,1205,0,0,588,1292,0,0,0,615,1310,3502,0,745,0,0,0,1508,0,0,2278,854,1881,3998,0,0,0,0,0,0,0,0,0,0,0,0],"split_type":[0,0,0,0,0,0,0,0,0,0,0,0,0,0,0,0,0,0,0,0,0,0,0,0,0,0,0,0,0,0,0,0,0,0,0,0,0,0,0,0,0,0,0,0,0,0,0,0,0,0,0,0,0,0,0,0,0,0,0,0,0,0,0,0,0],"sum_hessian":[4.3477686E2,9.974047E1,3.350364E2,8.49142E1,1.4826277E1,5.878993E1,2.7624646E2,1.3552434E0,8.355895E1,7.2615566E0,7.5647197E0,4.762845E0,5.4027084E1,2.1134912E1,2.5511156E2,1.3698969E0,8.218906E1,1.3064919E0,5.9550653E0,1.7224278E0,5.842292E0,1.6692553E0,3.09359E0,2.7871296E0,5.1239956E1,1.6231023E0,1.951181E1,1.9479986E1,2.3563156E2,1.1232035E0,8.106585E1,1.1335094E0,4.708782E0,3.2088697E0,4.8031086E1,1.2876179E0,1.8224192E1,1.4809959E1,4.670027E0,3.3050495E1,2.0258107E2,1.5524241E0,7.951343E1,1.3315315E0,1.877338E0,1.7897046E0,4.6241383E1,1.8948245E0,2.7752025E0,4.4431186E0,2.8607378E1,2.8681686E1,1.7389938E2,2.156809E0,7.735662E1,1.1190252E0,4.5122356E1,3.3181336E0,1.1249847E0,5.9803247E0,2.2627052E1,9.912855E0,1.8768831E1,5.9096878E1,1.14802505E2],"tree_param":{"num_deleted":"0","num_feature":"4096","num_nodes":"65","size_leaf_vector":"1"}},{"base_weights":[2.008047E-2,1.0211488E0,-2.6641205E-1,-1.4926435E0,1.1190271E0,9.847277E-1,-4.4695693E-1,-8.677018E-2,-2.4391752E-2,-8.6941856E-1,1.2025487E0,-7.432639E-2,1.1060158E0,6.839734E-1,-6.6123945E-1,3.799984E-2,-8.686531E-2,-6.8708405E-2,1.2525402E0,-4.8289698E-2,1.2126794E0,-5.3677297E-1,9.394058E-1,4.3621838E-1,-8.508544E-1,-4.0109724E-2,1.2934499E0,-2.6533082E-2,1.3231524E0,7.5280774E-1,-1.6778538E0,-4.9007904E-2,1.0446887E0,-1.6643082E0,7.390922E-1,9.745057E-2,-1.1169894E0,-1.9629158E-2,1.3338894E0,-1.4521619E-3,1.3716851E0,-1.6912048E-3,5.2310884E-2,-9.560252E-2,-2.465756E-2,-3.0072061E-2,1.1536418E0,-9.267907E-2,-2.7186532E-2,-8.5901715E-2,9.635065E-1,-4.0999332E-1,1.1253871E0,8.201772E-2,-1.3440614E0,-1.1362399E-2,6.827005E-2,1.2457236E-2,6.9882356E-2,-2.9704038E-2,6.1319817E-2,-5.9035357E-2,5.785784E-2,-4.860005E-2,3.461471E-2,-2.811274E-2,6.4607956E-2,-8.8947944E-2,2.8803114E-2,3.1069424E-3,-7.643916E-2],"categories":[],"categories_nodes":[],"categories_segments":[],"categories_sizes":[],"default_left":[0,0,0,0,0,0,0,0,0,0,0,0,0,0,0,0,0,0,0,0,0,0,0,0,0,0,0,0,0,0,0,0,0,0,0,0,0,0,0,0,0,0,0,0,0,0,0,0,0,0,0,0,0,0,0,0,0,0,0,0,0,0,0,0,0,0,0,0,0,0,0],"id":4,"left_children":[1,3,5,7,9,11,13,-1,-1,15,17,-1,19,21,23,-1,-1,-1,25,-1,27,29,31,33,35,-1,37,-1,39,41,43,-1,45,47,49,51,53,-1,55,-1,57,-1,-1,-1,-1,-1,59,-1,-1,-1,61,63,65,67,69,-1,-1,-1,-1,-1,-1,-1,-1,-1,-1,-1,-1,-1,-1,-1,-1],"loss_changes":[1.2462975E2,2.5459946E1,7.677153E1,1.4181995E-1,1.6596397E1,1.4510502E1,7.218274E1,0E0,0E0,7.478794E0,1.3350616E1,0E0,1.0340179E1,1.5359585E1,5.2259865E1,0E0,0E0,0E0,8.526016E0,0E0,8.38715E0,1.4330162E1,9.059547E0,2.5021347E1,5.3853943E1,0E0,6.505234E0,0E0,2.5212326E0,1.1568785E0,4.5015526E-1,0E0,7.5410576E0,5.690193E-2,2.0059385E1,2.5283886E1,4.5405777E1,0E0,4.5361786E0,0E0,7.1614075E-1,0E0,0E0,0E0,0E0,0E0,5.32526E0,0E0,0E0,0E0,1.4331152E1,2.0863855E1,5.228239E0,2.6246828E1,3.6443985E1,0E0,0E0,0E0,0E0,0E0,0E0,0E0,0E0,0E0,0E0,0E0,0E0,0E0,0E0,0E0,0E0],"parents":[2147483647,0,0,1,1,2,2,3,3,4,4,5,5,6,6,9,9,10,10,12,12,13,13,14,14,18,18,20,20,21,21,22,22,23,23,24,24,26,26,28,28,29,29,30,30,32,32,33,33,34,34,35,35,36,36,38,38,40,40,46,46,50,50,51,51,52,52,53,53,54,54],"right_children":[2,4,6,8,10,12,14,-1,-1,16,18,-1,20,22,24,-1,-1,-1,26,-1,28,30,32,34,36,-1,38,-1,40,42,44,-1,46,48,50,52,54,-1,56,-1,58,-1,-1,-1,-1,-1,60,-1,-1,-1,62,64,66,68,70,-1,-1,-1,-1,-1,-1,-1,-1,-1,-1,-1,-1,-1,-1,-1,-1],"split_conditions":[1.8E2,1E0,1.77E2,2.34E2,1E0,1.62E2,1.79E2,-8.677018E-2,-2.4391752E-2,1.4E2,1E0,-7.432639E-2,1E0,1E0,1.81E2,3.799984E-2,-8.686531E-2,-6.8708405E-2,2E0,-4.8289698E-2,1E0,2.09E2,1E0,1.7E2,1.91E2,-4.0109724E-2,1E0,-2.6533082E-2,1.5E1,1.78E2,2.18E2,-4.9007904E-2,4E0,2.44E2,4.5E1,2.43E2,1.73E2,-1.9629158E-2,1E0,-1.4521619E-3,2.3E1,-1.6912048E-3,5.2310884E-2,-9.560252E-2,-2.465756E-2,-3.0072061E-2,1E0,-9.267907E-2,-2.7186532E-2,-8.5901715E-2,1.38E2,2.31E2,1E0,1.84E2,1.81E2,-1.1362399E-2,6.827005E-2,1.2457236E-2,6.9882356E-2,-2.9704038E-2,6.1319817E-2,-5.9035357E-2,5.785784E-2,-4.860005E-2,3.461471E-2,-2.811274E-2,6.4607956E-2,-8.8947944E-2,2.8803114E-2,3.1069424E-3,-7.643916E-2],"split_indices":[974,3288,911,143,304,4066,3151,0,0,502,1896,0,3987,1857,944,0,0,0,3575,0,3594,3216,1922,1675,3086,0,2423,0,1363,205,3378,0,3616,2150,3291,1891,2243,0,3281,0,2243,0,0,0,0,0,682,0,0,0,2325,3546,2876,650,2974,0,0,0,0,0,0,0,0,0,0,0,0,0,0,0,0],"split_type":[0,0,0,0,0,0,0,0,0,0,0,0,0,0,0,0,0,0,0,0,0,0,0,0,0,0,0,0,0,0,0,0,0,0,0,0,0,0,0,0,0,0,0,0,0,0,0,0,0,0,0,0,0,0,0,0,0,0,0,0,0,0,0,0,0,0,0,0,0,0,0],"sum_hessian":[4.3260648E2,9.5687805E1,3.369187E2,3.0520697E0,9.2635735E1,4.192597E1,2.949927E2,1.8725626E0,1.1795069E0,3.3548768E0,8.928085E1,1.43484E0,4.0491127E1,4.6641018E1,2.483517E2,1.2091233E0,2.1457534E0,1.1950717E0,8.8085785E1,1.5881749E0,3.8902954E1,7.88E0,3.876102E1,3.639622E1,2.1195547E2,1.3562775E0,8.672951E1,2.0916553E0,3.68113E1,3.8590276E0,4.0209727E0,1.5833272E0,3.7177692E1,4.0201488E0,3.2376072E1,4.6587284E1,1.653682E2,1.8275093E0,8.4902E1,1.2893595E0,3.552194E1,1.2887121E0,2.5703156E0,2.8446763E0,1.1762964E0,2.0273345E0,3.5150356E1,2.8796294E0,1.1405194E0,2.1525066E0,3.0223564E1,3.1592636E1,1.4994649E1,2.643299E1,1.3893521E2,1.5569489E0,8.334505E1,1.0425043E0,3.4479435E1,1.1183978E0,3.403196E1,2.0812788E0,2.8142286E1,2.1002556E1,1.0590079E1,1.1352403E0,1.3859408E1,4.999599E0,2.143339E1,1.62088E1,1.227264E2],"tree_param":{"num_deleted":"0","num_feature":"4096","num_nodes":"71","size_leaf_vector":"1"}},{"base_weights":[1.8137714E-2,9.831554E-1,-2.6027346E-1,1.1816525E0,-2.1582375E-1,7.61153E-1,-4.4425988E-1,1.2656798E0,-9.245484E-1,9.2283124E-1,-1.6156828E0,-4.1057917E-1,1.0484557E0,7.2584E-1,-5.969818E-1,-3.8854655E-2,1.3105711E0,-7.518828E-2,1.413233E-2,-2.9502017E-2,6.1173256E-2,1.4148231E-2,-1.0042461E-1,9.499148E-1,-1.3368757E0,-8.236164E-1,1.1902549E0,-6.287975E-2,9.156296E-1,7.378048E-1,-7.451092E-1,-2.8172364E-2,1.3448982E0,1.31708635E-2,5.3284045E-2,3.9532106E-2,-9.747378E-2,1.42682195E-2,-7.10268E-2,-2.5657034E-1,1.2975591E0,-7.086329E-2,1.0789272E0,-8.981194E-1,1.0491025E0,3.9366126E-1,-9.057847E-1,4.0861443E-3,6.833398E-2,4.340586E-2,-6.625117E-2,-7.783598E-3,1.3692998E0,-3.9009434E-1,1.2833315E0,3.8969643E-2,-8.670558E-2,-6.702753E-2,1.2516843E0,-8.527701E-2,6.510938E-1,3.0724213E-1,-1.0733966E0,1.2141431E-2,6.981095E-2,4.540157E-2,-7.7152155E-2,-6.593369E-3,6.913777E-2,-2.7693138E-2,6.9137335E-2,-4.878199E-2,5.0216176E-2,-8.861558E-2,3.166687E-2,1.3298278E-2,-6.193332E-2],"categories":[],"categories_nodes":[],"categories_segments":[],"categories_sizes":[],"default_left":[0,0,0,0,0,0,0,0,0,0,0,0,0,0,0,0,0,0,0,0,0,0,0,0,0,0,0,0,0,0,0,0,0,0,0,0,0,0,0,0,0,0,0,0,0,0,0,0,0,0,0,0,0,0,0,0,0,0,0,0,0,0,0,0,0,0,0,0,0,0,0,0,0,0,0,0,0],"id":5,"left_children":[1,3,5,7,9,11,13,15,17,19,21,23,25,27,29,-1,31,-1,-1,-1,-1,-1,-1,33,35,37,39,-1,41,43,45,-1,47,-1,-1,-1,-1,-1,-1,49,51,-1,53,55,57,59,61,-1,-1,-1,-1,-1,63,65,67,-1,-1,-1,69,-1,71,73,75,-1,-1,-1,-1,-1,-1,-1,-1,-1,-1,-1,-1,-1,-1],"loss_changes":[1.1601588E2,2.3264626E1,6.3327827E1,1.5877686E1,2.472798E1,1.7776987E1,5.1300377E1,8.385574E0,3.0584025E0,4.6677227E0,5.7163334E0,1.4962394E1,1.2040089E1,1.3692324E1,5.0441246E1,0E0,5.838669E0,0E0,0E0,0E0,0E0,0E0,0E0,1.1550903E-1,1.0507447E1,2.7385364E0,6.409157E0,0E0,1.3332657E1,1.4034346E1,4.2006226E1,0E0,2.030426E0,0E0,0E0,0E0,0E0,0E0,0E0,5.4008474E0,4.029049E0,0E0,9.366161E0,7.870791E0,1.23569565E1,1.6697342E1,4.0949554E1,0E0,0E0,0E0,0E0,0E0,7.2171783E-1,7.9464703E0,3.8619766E0,0E0,0E0,0E0,5.7004204E0,0E0,1.61588E1,1.8097271E1,3.923349E1,0E0,0E0,0E0,0E0,0E0,0E0,0E0,0E0,0E0,0E0,0E0,0E0,0E0,0E0],"parents":[2147483647,0,0,1,1,2,2,3,3,4,4,5,5,6,6,7,7,8,8,9,9,10,10,11,11,12,12,13,13,14,14,16,16,23,23,24,24,25,25,26,26,28,28,29,29,30,30,32,32,39,39,40,40,42,42,43,43,44,44,45,45,46,46,52,52,53,53,54,54,58,58,60,60,61,61,62,62],"right_children":[2,4,6,8,10,12,14,16,18,20,22,24,26,28,30,-1,32,-1,-1,-1,-1,-1,-1,34,36,38,40,-1,42,44,46,-1,48,-1,-1,-1,-1,-1,-1,50,52,-1,54,56,58,60,62,-1,-1,-1,-1,-1,64,66,68,-1,-1,-1,70,-1,72,74,76,-1,-1,-1,-1,-1,-1,-1,-1,-1,-1,-1,-1,-1,-1],"split_conditions":[1.67E2,2.55E2,1.63E2,2.54E2,2.07E2,1E0,1.72E2,2E0,2.55E2,2.01E2,1.79E2,2.13E2,1.1E1,1E0,1.84E2,-3.8854655E-2,1E0,-7.518828E-2,1.413233E-2,-2.9502017E-2,6.1173256E-2,1.4148231E-2,-1.0042461E-1,1E0,1.7E2,1.93E2,1E0,-6.287975E-2,8E0,1.95E2,1.6E2,-2.8172364E-2,1E0,1.31708635E-2,5.3284045E-2,3.9532106E-2,-9.747378E-2,1.42682195E-2,-7.10268E-2,1.58E2,1.93E2,-7.086329E-2,1E0,2.03E2,1.33E2,1.8E1,1.75E2,4.0861443E-3,6.833398E-2,4.340586E-2,-6.625117E-2,-7.783598E-3,3E0,1.37E2,1E0,3.8969643E-2,-8.670558E-2,-6.702753E-2,2.1E2,-8.527701E-2,1.89E2,1.81E2,1.72E2,1.2141431E-2,6.981095E-2,4.540157E-2,-7.7152155E-2,-6.593369E-3,6.913777E-2,-2.7693138E-2,6.9137335E-2,-4.878199E-2,5.0216176E-2,-8.861558E-2,3.166687E-2,1.3298278E-2,-6.193332E-2],"split_indices":[3185,1642,503,107,1774,2046,1269,1486,20,1560,1126,2530,3573,713,1890,0,1434,0,0,0,0,0,0,150,1592,357,697,0,1803,1309,2998,0,2946,0,0,0,0,0,0,82,2368,0,2686,496,647,1342,3502,0,0,0,0,0,2189,76,2306,0,0,0,7,0,533,1629,2212,0,0,0,0,0,0,0,0,0,0,0,0,0,0],"split_type":[0,0,0,0,0,0,0,0,0,0,0,0,0,0,0,0,0,0,0,0,0,0,0,0,0,0,0,0,0,0,0,0,0,0,0,0,0,0,0,0,0,0,0,0,0,0,0,0,0,0,0,0,0,0,0,0,0,0,0,0,0,0,0,0,0,0,0,0,0,0,0,0,0,0,0,0,0],"sum_hessian":[4.2986035E2,9.5681526E1,3.3417883E2,8.2103355E1,1.3578175E1,5.0528084E1,2.8365076E2,7.933725E1,2.7661076E0,7.675576E0,5.9025984E0,9.865139E0,4.0662945E1,3.2314686E1,2.5133606E2,1.3552693E0,7.798198E1,1.7032243E0,1.0628833E0,1.1128342E0,6.562742E0,1.0597802E0,4.842818E0,3.9856844E0,5.879454E0,2.5245671E0,3.8138374E1,2.3307247E0,2.9983961E1,2.4708164E1,2.2662788E2,1.1254642E0,7.6856514E1,1.0477735E0,2.937911E0,1.2494757E0,4.6299787E0,1.0660172E0,1.4585499E0,2.537203E0,3.5601173E1,1.459158E0,2.8524803E1,3.648672E0,2.1059492E1,2.7843071E1,1.9878482E2,1.3833569E0,7.547316E1,1.3274198E0,1.2097833E0,1.6197814E0,3.398139E1,3.3732615E0,2.5151543E1,1.2360673E0,2.412605E0,1.206797E0,1.9852695E1,2.4270225E0,2.5416048E1,2.403168E1,1.7475314E2,1.0269685E0,3.2954422E1,1.6866541E0,1.6866072E0,1.6295915E0,2.352195E1,1.1252353E0,1.8727459E1,4.219923E0,2.1196125E1,2.6564147E0,2.1375263E1,1.9128082E1,1.5562506E2],"tree_param":{"num_deleted":"0","num_feature":"4096","num_nodes":"77","size_leaf_vector":"1"}},{"base_weights":[1.684527E-2,9.2123795E-1,-2.6439992E-1,-8.633621E-2,1.0248504E0,7.203457E-1,-4.5761564E-1,1.1989723E0,1.6610472E-1,9.64005E-1,-3.7459692E-1,9.002615E-1,-5.8210814E-1,-1.7694937E-1,1.2617457E0,-1.0357249E0,7.90318E-1,-6.724796E-2,1.0591744E0,-1.697255E0,5.766679E-2,-7.442157E-2,1.1568248E0,4.955428E-1,-7.4125034E-1,4.5954376E-2,-7.2154805E-2,-1.5314802E-3,1.2948208E0,4.137777E-2,-8.9410365E-2,1.191271E0,-4.4032533E-2,-5.114996E-2,1.1775532E0,-2.447447E-2,-9.418643E-2,-2.9020859E-2,1.279548E0,-8.756081E-1,9.7005445E-1,2.2854044E-1,-9.129193E-1,-3.7224346E-3,1.3186936E0,1.0115931E-2,6.3786246E-2,-2.7530674E-2,1.2828352E0,1.0186003E-2,6.620719E-2,3.9273404E-2,-1.7170917E0,-4.6175238E-2,1.1394335E0,-1.0043986E0,6.409002E-1,1.4812668E-1,-1.0701619E0,-3.0989232E-3,6.715084E-2,-1.6625656E-3,6.641247E-2,-2.6357984E-2,-9.373997E-2,-3.661209E-2,6.451889E-2,2.9992124E-2,-9.540814E-2,6.0328003E-2,-1.6485367E-2,5.982699E-2,-2.4180068E-2,4.7735306E-3,-6.1947484E-2],"categories":[],"categories_nodes":[],"categories_segments":[],"categories_sizes":[],"default_left":[0,0,0,0,0,0,0,0,0,0,0,0,0,0,0,0,0,0,0,0,0,0,0,0,0,0,0,0,0,0,0,0,0,0,0,0,0,0,0,0,0,0,0,0,0,0,0,0,0,0,0,0,0,0,0,0,0,0,0,0,0,0,0,0,0,0,0,0,0,0,0,0,0,0,0],"id":6,"left_children":[1,3,5,-1,7,9,11,13,15,17,19,21,23,25,27,29,31,-1,33,35,-1,-1,37,39,41,-1,-1,-1,43,-1,-1,45,-1,-1,47,-1,-1,-1,49,51,53,55,57,-1,59,-1,-1,-1,61,-1,-1,-1,63,-1,65,67,69,71,73,-1,-1,-1,-1,-1,-1,-1,-1,-1,-1,-1,-1,-1,-1,-1,-1],"loss_changes":[1.0908978E2,2.968097E1,6.2584774E1,0E0,1.4533485E1,1.4783155E1,4.686609E1,7.2847824E0,1.4150244E1,1.1202484E1,2.3298363E1,1.6072062E1,4.3537918E1,7.4938397E0,3.3872147E0,1.0604043E1,9.265259E0,0E0,1.1876236E1,4.4382095E-1,0E0,0E0,5.3706264E0,2.2313234E1,3.6790695E1,0E0,0E0,0E0,2.594986E0,0E0,0E0,6.034298E-1,0E0,0E0,8.244503E0,0E0,0E0,0E0,7.179451E-1,1.3938468E1,9.064875E0,1.7851807E1,3.1339218E1,0E0,2.6061554E0,0E0,0E0,0E0,2.3962097E0,0E0,0E0,0E0,1.9250298E-1,0E0,7.5498447E0,1.4008401E1,1.4658467E1,1.7136286E1,3.216565E1,0E0,0E0,0E0,0E0,0E0,0E0,0E0,0E0,0E0,0E0,0E0,0E0,0E0,0E0,0E0,0E0],"parents":[2147483647,0,0,1,1,2,2,4,4,5,5,6,6,7,7,8,8,9,9,10,10,11,11,12,12,13,13,14,14,15,15,16,16,18,18,19,19,22,22,23,23,24,24,28,28,31,31,34,34,38,38,39,39,40,40,41,41,42,42,44,44,48,48,52,52,54,54,55,55,56,56,57,57,58,58],"right_children":[2,4,6,-1,8,10,12,14,16,18,20,22,24,26,28,30,32,-1,34,36,-1,-1,38,40,42,-1,-1,-1,44,-1,-1,46,-1,-1,48,-1,-1,-1,50,52,54,56,58,-1,60,-1,-1,-1,62,-1,-1,-1,64,-1,66,68,70,72,74,-1,-1,-1,-1,-1,-1,-1,-1,-1,-1,-1,-1,-1,-1,-1,-1],"split_conditions":[1.95E2,1E0,1.79E2,-8.633621E-2,2.36E2,2.55E2,1.74E2,1E0,1E0,1E0,2.54E2,1E0,1.63E2,1.92E2,7E0,7.1E1,2.49E2,-6.724796E-2,1E0,2E0,5.766679E-2,-7.442157E-2,5E0,2.06E2,1.8E2,4.5954376E-2,-7.2154805E-2,-1.5314802E-3,3E0,4.137777E-2,-8.9410365E-2,9.2E1,-4.4032533E-2,-5.114996E-2,1E0,-2.447447E-2,-9.418643E-2,-2.9020859E-2,3E0,1.54E2,1.1E1,1.28E2,1.96E2,-3.7224346E-3,6E0,1.0115931E-2,6.3786246E-2,-2.7530674E-2,9E0,1.0186003E-2,6.620719E-2,3.9273404E-2,1.99E2,-4.6175238E-2,2E0,2.01E2,2.18E2,1.98E2,1.8E2,-3.0989232E-3,6.715084E-2,-1.6625656E-3,6.641247E-2,-2.6357984E-2,-9.373997E-2,-3.661209E-2,6.451889E-2,2.9992124E-2,-9.540814E-2,6.0328003E-2,-1.6485367E-2,5.982699E-2,-2.4180068E-2,4.7735306E-3,-6.1947484E-2],"split_indices":[1889,2006,3151,0,2717,2548,3086,3699,1982,711,881,3219,456,298,2976,973,289,0,2700,865,0,0,368,1455,2869,0,0,0,2985,0,0,3989,0,0,3934,0,0,0,2994,2593,2306,123,1949,0,1626,0,0,0,817,0,0,0,3162,0,2377,2726,3884,3293,1862,0,0,0,0,0,0,0,0,0,0,0,0,0,0,0,0],"split_type":[0,0,0,0,0,0,0,0,0,0,0,0,0,0,0,0,0,0,0,0,0,0,0,0,0,0,0,0,0,0,0,0,0,0,0,0,0,0,0,0,0,0,0,0,0,0,0,0,0,0,0,0,0,0,0,0,0,0,0,0,0,0,0,0,0,0,0,0,0,0,0,0,0,0,0],"sum_hessian":[4.2692844E2,1.0073192E2,3.2619653E2,3.2032435E0,9.752868E1,5.3057056E1,2.7313947E2,8.075778E1,1.6770895E1,4.349715E1,9.559906E0,2.2415491E1,2.5072397E2,3.4442713E0,7.731351E1,5.5075946E0,1.1263301E1,1.2020184E0,4.229513E1,5.0647645E0,4.4951415E0,1.7083887E0,2.0707102E1,3.198948E1,2.187345E2,1.9930762E0,1.4511951E0,1.9311153E0,7.538239E1,1.5556818E0,3.9519126E0,9.315179E0,1.9481221E0,1.8641789E0,4.0430954E1,1.1622167E0,3.9025478E0,1.1202085E0,1.9586895E1,8.007035E0,2.3982445E1,3.2846573E1,1.8588792E2,1.2554481E0,7.4126945E1,1.0000647E0,8.315114E0,2.0787728E0,3.835218E1,1.0012339E0,1.858566E1,2.714742E0,5.292293E0,1.603537E0,2.2378908E1,7.8724704E0,2.4974104E1,2.3999758E1,1.6188815E2,1.2564754E0,7.287047E1,1.2882084E0,3.7063972E1,1.1275291E0,4.1647635E0,1.3826973E0,2.099621E1,2.9580395E0,4.9144306E0,1.562495E1,9.3491535E0,8.687668E0,1.531209E1,2.0531803E1,1.4135635E2],"tree_param":{"num_deleted":"0","num_feature":"4096","num_nodes":"75","size_leaf_vector":"1"}},{"base_weights":[1.580606E-2,9.571027E-1,-2.402105E-1,-1.3448514E0,1.0547549E0,9.294572E-1,-4.0126202E-1,-7.851116E-2,-2.1530129E-2,-8.211887E-1,1.1384817E0,-6.821462E-2,1.0501745E0,6.263832E-1,-5.864899E-1,3.5044428E-2,-7.83813E-2,-6.411323E-2,1.1894419E0,-6.308613E-2,1.1578455E0,9.2328066E-1,-3.8414592E-1,4.8640954E-1,-7.430773E-1,-3.8642753E-2,1.2312216E0,-2.5621703E-1,1.2909042E0,-4.5817338E-2,1.0366768E0,-1.0924306E0,5.2351005E-2,-1.4487325E0,7.788858E-1,2.8693703E-1,-9.154336E-1,-1.8690376E-1,1.2835087E0,4.414959E-2,-6.824811E-2,-3.6245906E-3,6.715932E-2,-4.361878E-2,1.1595193E0,4.5643803E-2,-9.5846415E-2,-2.4146823E-2,-8.1655525E-2,1.074955E0,-6.228445E-1,-1.5002917E0,6.027865E-1,5.1861495E-1,-1.0529189E0,4.1526854E-2,-6.35615E-2,-2.5312373E-2,6.583111E-2,-3.2083705E-2,6.2109333E-2,-2.6057178E-2,6.239864E-2,4.5447588E-2,-8.42232E-2,-2.4437662E-2,-8.3455116E-2,4.625384E-2,-5.8028936E-2,-7.9489134E-2,4.690384E-2,-3.360526E-3,-6.290416E-2],"categories":[],"categories_nodes":[],"categories_segments":[],"categories_sizes":[],"default_left":[0,0,0,0,0,0,0,0,0,0,0,0,0,0,0,0,0,0,0,0,0,0,0,0,0,0,0,0,0,0,0,0,0,0,0,0,0,0,0,0,0,0,0,0,0,0,0,0,0,0,0,0,0,0,0,0,0,0,0,0,0,0,0,0,0,0,0,0,0,0,0,0,0],"id":7,"left_children":[1,3,5,7,9,11,13,-1,-1,15,17,-1,19,21,23,-1,-1,-1,25,-1,27,29,31,33,35,-1,37,39,41,-1,43,45,-1,47,49,51,53,55,57,-1,-1,-1,-1,-1,59,-1,-1,-1,-1,61,63,65,67,69,71,-1,-1,-1,-1,-1,-1,-1,-1,-1,-1,-1,-1,-1,-1,-1,-1,-1,-1],"loss_changes":[1.02511795E2,2.1864182E1,6.3380043E1,1.7708254E-1,1.4727478E1,1.2724945E1,5.6461617E1,0E0,0E0,6.0213547E0,1.1946846E1,0E0,1.1245506E1,1.4002277E1,4.239631E1,0E0,0E0,0E0,7.777359E0,0E0,7.4956055E0,8.345579E0,1.2330634E1,1.9506052E1,3.9094276E1,0E0,6.3133163E0,6.3958178E0,2.590107E0,0E0,8.952904E0,1.4764888E1,0E0,3.2730103E-2,1.2645645E1,1.9033768E1,3.753682E1,5.23209E0,5.3556976E0,0E0,0E0,0E0,0E0,0E0,5.598404E0,0E0,0E0,0E0,0E0,7.331085E0,1.0744133E1,5.679226E-2,1.6989979E1,1.6599995E1,3.460504E1,0E0,0E0,0E0,0E0,0E0,0E0,0E0,0E0,0E0,0E0,0E0,0E0,0E0,0E0,0E0,0E0,0E0,0E0],"parents":[2147483647,0,0,1,1,2,2,3,3,4,4,5,5,6,6,9,9,10,10,12,12,13,13,14,14,18,18,20,20,21,21,22,22,23,23,24,24,26,26,27,27,28,28,30,30,31,31,33,33,34,34,35,35,36,36,37,37,38,38,44,44,49,49,50,50,51,51,52,52,53,53,54,54],"right_children":[2,4,6,8,10,12,14,-1,-1,16,18,-1,20,22,24,-1,-1,-1,26,-1,28,30,32,34,36,-1,38,40,42,-1,44,46,-1,48,50,52,54,56,58,-1,-1,-1,-1,-1,60,-1,-1,-1,-1,62,64,66,68,70,72,-1,-1,-1,-1,-1,-1,-1,-1,-1,-1,-1,-1,-1,-1,-1,-1,-1,-1],"split_conditions":[1.8E2,1E0,1.77E2,2.2E2,1E0,1E0,1.79E2,-7.851116E-2,-2.1530129E-2,1.4E2,1E0,-6.821462E-2,2E0,2.53E2,1.81E2,3.5044428E-2,-7.83813E-2,-6.411323E-2,2E0,-6.308613E-2,6E0,1E0,2.54E2,4E0,1.81E2,-3.8642753E-2,1E0,1.96E2,1.3E1,-4.5817338E-2,1E0,1.65E2,5.2351005E-2,2.03E2,2.38E2,1.7E2,1.65E2,1.76E2,3E0,4.414959E-2,-6.824811E-2,-3.6245906E-3,6.715932E-2,-4.361878E-2,2E0,4.5643803E-2,-9.5846415E-2,-2.4146823E-2,-8.1655525E-2,1.89E2,2.06E2,1.57E2,2.55E2,1.84E2,1.99E2,4.1526854E-2,-6.35615E-2,-2.5312373E-2,6.583111E-2,-3.2083705E-2,6.2109333E-2,-2.6057178E-2,6.239864E-2,4.5447588E-2,-8.42232E-2,-2.4437662E-2,-8.3455116E-2,4.625384E-2,-5.8028936E-2,-7.9489134E-2,4.690384E-2,-3.360526E-3,-6.290416E-2],"split_indices":[974,3288,911,92,304,371,3151,0,0,502,1896,0,3322,797,1048,0,0,0,3335,0,3594,3238,2678,4009,944,0,2006,0,2266,0,2882,3717,0,1188,3907,1675,2551,39,2536,0,0,0,0,0,2075,0,0,0,0,998,796,380,1228,910,1696,0,0,0,0,0,0,0,0,0,0,0,0,0,0,0,0,0,0],"split_type":[0,0,0,0,0,0,0,0,0,0,0,0,0,0,0,0,0,0,0,0,0,0,0,0,0,0,0,0,0,0,0,0,0,0,0,0,0,0,0,0,0,0,0,0,0,0,0,0,0,0,0,0,0,0,0,0,0,0,0,0,0,0,0,0,0,0,0,0,0,0,0,0,0],"sum_hessian":[4.234281E2,8.995434E1,3.334738E2,3.1409476E0,8.681339E1,3.9781532E1,2.9369223E2,1.9441847E0,1.1967628E0,3.3327804E0,8.348061E1,1.4739242E0,3.830761E1,4.448844E1,2.492038E2,1.1167043E0,2.216076E0,1.2229934E0,8.225762E1,1.2277273E0,3.707988E1,3.44525E1,1.0035942E1,3.147033E1,2.1773347E2,1.3500571E0,8.090756E1,3.1094136E0,3.3970467E1,1.5892437E0,3.286326E1,6.87178E0,3.1641622E0,3.6128569E0,2.7857473E1,3.1116152E1,1.8661732E2,2.7854817E0,7.812208E1,1.6340638E0,1.4753498E0,1.240282E0,3.2730186E1,1.617934E0,3.1245323E1,1.9709448E0,4.900835E0,1.1593424E0,2.4535143E0,2.3192043E1,4.66543E0,4.109965E0,2.7006187E1,1.6083656E1,1.7053366E2,1.557813E0,1.2276686E0,1.1595788E0,7.69625E1,1.0743679E0,3.0170956E1,2.0713778E0,2.1120665E1,1.9686698E0,2.6967602E0,1.1448901E0,2.9650748E0,2.3234928E1,3.7712584E0,2.2058816E0,1.3877774E1,2.9608355E1,1.4092531E2],"tree_param":{"num_deleted":"0","num_feature":"4096","num_nodes":"73","size_leaf_vector":"1"}},{"base_weights":[1.4033381E-2,1.0112282E0,-2.1417564E-1,1.1870285E0,-3.1157205E-1,7.162872E-1,-3.8875273E-1,-3.9641502E-1,1.2476019E0,-7.653826E-2,8.8641363E-1,-1.0579859E0,8.913799E-1,7.5337017E-1,-5.3457373E-1,3.417045E-2,-6.1403412E-2,-1.9997753E-2,1.298072E0,5.7977326E-2,-2.9916225E-3,3.6584783E-2,-8.634381E-2,-5.3699117E-2,9.9920803E-1,-9.922848E-1,1.0108211E0,4.992577E-1,-6.9906336E-1,1.0341301E-2,6.559257E-2,-6.120521E-2,1.0840672E0,3.3815723E-2,-8.300756E-2,-8.2381433E-1,1.2076212E0,-1.1162105E0,8.0896455E-1,3.2953417E-1,-8.6049366E-1,-4.1809833E-1,1.1866848E0,-2.6521771E-3,-6.078101E-2,-2.6773512E-2,1.3030444E0,-8.6753905E-2,3.851379E-2,-6.5939955E-2,9.622149E-1,-1.340888E0,6.8231684E-1,6.1684966E-1,-1.0039628E0,4.0011715E-2,-6.8128765E-2,-3.0641332E-2,6.310435E-2,1.161439E-2,6.68484E-2,-4.332133E-2,5.6186933E-2,1.3403336E-2,-8.740697E-2,-5.8029372E-2,4.692259E-2,-3.250938E-2,5.1961076E-2,2.9036978E-2,-5.7416674E-2],"categories":[],"categories_nodes":[],"categories_segments":[],"categories_sizes":[],"default_left":[0,0,0,0,0,0,0,0,0,0,0,0,0,0,0,0,0,0,0,0,0,0,0,0,0,0,0,0,0,0,0,0,0,0,0,0,0,0,0,0,0,0,0,0,0,0,0,0,0,0,0,0,0,0,0,0,0,0,0,0,0,0,0,0,0,0,0,0,0,0,0],"id":8,"left_children":[1,3,5,7,9,11,13,15,17,-1,19,21,23,25,27,-1,-1,-1,29,-1,-1,-1,-1,-1,31,33,35,37,39,-1,-1,-1,41,-1,-1,43,45,47,49,51,53,55,57,-1,-1,-1,59,-1,-1,-1,61,63,65,67,69,-1,-1,-1,-1,-1,-1,-1,-1,-1,-1,-1,-1,-1,-1,-1,-1],"loss_changes":[9.592765E1,1.8624962E1,5.600759E1,7.1605606E0,1.5964003E1,1.7890484E1,4.862231E1,3.820362E0,6.1053314E0,0E0,1.5367651E0,7.676648E0,1.1710598E1,1.5921722E1,4.4109566E1,0E0,0E0,0E0,7.123413E-1,0E0,0E0,0E0,0E0,0E0,1.0402473E1,6.439698E0,1.16186905E1,1.8867804E1,3.7216675E1,0E0,0E0,0E0,7.7202606E0,0E0,0E0,9.7588825E-1,5.1852417E0,8.5708885E0,1.12829E1,1.9121635E1,4.1426666E1,5.389593E0,6.7610664E0,0E0,0E0,0E0,6.291504E-1,0E0,0E0,0E0,9.60577E0,4.219576E0,1.3442827E1,1.012747E1,4.0902924E1,0E0,0E0,0E0,0E0,0E0,0E0,0E0,0E0,0E0,0E0,0E0,0E0,0E0,0E0,0E0,0E0],"parents":[2147483647,0,0,1,1,2,2,3,3,4,4,5,5,6,6,7,7,8,8,10,10,11,11,12,12,13,13,14,14,18,18,24,24,25,25,26,26,27,27,28,28,32,32,35,35,36,36,37,37,38,38,39,39,40,40,41,41,42,42,46,46,50,50,51,51,52,52,53,53,54,54],"right_children":[2,4,6,8,10,12,14,16,18,-1,20,22,24,26,28,-1,-1,-1,30,-1,-1,-1,-1,-1,32,34,36,38,40,-1,-1,-1,42,-1,-1,44,46,48,50,52,54,56,58,-1,-1,-1,60,-1,-1,-1,62,64,66,68,70,-1,-1,-1,-1,-1,-1,-1,-1,-1,-1,-1,-1,-1,-1,-1,-1],"split_conditions":[1.71E2,2.5E2,1.81E2,1E0,2.39E2,1.4E1,1.81E2,1.91E2,1E0,-7.653826E-2,2.4E2,9.5E1,1E0,1.7E2,1.81E2,3.417045E-2,-6.1403412E-2,-1.9997753E-2,3E0,5.7977326E-2,-2.9916225E-3,3.6584783E-2,-8.634381E-2,-5.3699117E-2,1E0,2E2,1.03E2,1E1,1.8E2,1.0341301E-2,6.559257E-2,-6.120521E-2,3E0,3.3815723E-2,-8.300756E-2,1.42E2,9.8E1,2.5E2,3.5E1,1.72E2,1.65E2,2.15E2,1E0,-2.6521771E-3,-6.078101E-2,-2.6773512E-2,1.31E2,-8.6753905E-2,3.851379E-2,-6.5939955E-2,1E0,1.79E2,1.7E2,2.05E2,1.2E2,4.0011715E-2,-6.8128765E-2,-3.0641332E-2,6.310435E-2,1.161439E-2,6.68484E-2,-4.332133E-2,5.6186933E-2,1.3403336E-2,-8.740697E-2,-5.8029372E-2,4.692259E-2,-3.250938E-2,5.1961076E-2,2.9036978E-2,-5.7416674E-2],"split_indices":[3748,1144,974,1612,539,3289,2205,0,2591,0,199,154,3097,333,3047,0,0,0,2684,0,0,0,0,0,631,63,3068,86,944,0,0,0,1441,0,0,80,174,416,2804,737,551,35,870,0,0,0,639,0,0,0,1264,659,1675,1647,1097,0,0,0,0,0,0,0,0,0,0,0,0,0,0,0,0],"split_type":[0,0,0,0,0,0,0,0,0,0,0,0,0,0,0,0,0,0,0,0,0,0,0,0,0,0,0,0,0,0,0,0,0,0,0,0,0,0,0,0,0,0,0,0,0,0,0,0,0,0,0,0,0,0,0,0,0,0,0,0,0,0,0,0,0,0,0,0,0,0,0],"sum_hessian":[4.195807E2,7.750022E1,3.4208044E2,6.84993E1,9.000926E0,5.3552544E1,2.885279E2,2.3195536E0,6.617974E1,4.323305E0,4.677621E0,4.3571944E0,4.919535E1,3.219541E1,2.563325E2,1.0867555E0,1.2327981E0,1.7612303E0,6.441851E1,3.4549391E0,1.222682E0,1.1598926E0,3.197302E0,2.0926626E0,4.7102688E1,3.7710953E0,2.8424314E1,3.4906563E1,2.2142593E2,1.0029185E0,6.3415596E1,1.238145E0,4.586454E1,1.074332E0,2.6967635E0,2.445017E0,2.5979298E1,5.196566E0,2.9709997E1,2.9895725E1,1.9153021E2,2.7362144E0,4.3128326E1,1.2066483E0,1.2383687E0,1.1090367E0,2.4870262E1,3.973354E0,1.2232118E0,1.485093E0,2.8224903E1,4.7244787E0,2.5171247E1,1.6661572E1,1.7486864E2,1.2615694E0,1.474645E0,1.44782E0,4.1680508E1,1.0047243E0,2.3865538E1,1.9365677E0,2.6288336E1,1.0233254E0,3.7011533E0,2.640629E0,2.2530617E1,4.030737E0,1.2630835E1,1.4348459E1,1.6052017E2],"tree_param":{"num_deleted":"0","num_feature":"4096","num_nodes":"71","size_leaf_vector":"1"}},{"base_weights":[1.2999026E-2,1.0077602E0,-2.0537098E-1,-5.3661674E-2,1.0903113E0,7.0788026E-1,-3.9280185E-1,-8.4054804E-1,1.1693492E0,-8.1416026E-2,8.501324E-1,2.8842053E-1,-6.1204314E-1,-6.3276365E-2,-1.7468891E-3,-2.1279903E-1,1.2371898E0,-1.069746E0,9.8692137E-1,-7.0328164E-1,5.2536446E-1,6.208025E-1,-7.5769633E-1,-6.51394E-2,4.4373553E-2,-8.156798E-3,1.2730662E0,-1.3840634E-3,-7.4581414E-2,-5.834962E-1,1.1009208E0,5.2555263E-2,-1.3206351E0,-4.348257E-1,7.8295696E-1,-9.7985697E-1,1.0140853E0,7.903941E-1,-8.792635E-1,-2.450997E-3,1.2989506E0,3.930555E-2,-7.0554E-2,-5.884189E-2,1.183899E0,3.8895216E-2,-9.523169E-2,-8.441987E-2,3.903093E-1,-5.9943408E-2,9.312239E-1,3.6662478E-2,-8.3538845E-2,-3.7358437E-2,1.1875912E0,-5.557626E-2,1.2445428E0,2.5486174E-1,-1.0496231E0,1.1484685E-2,6.561228E-2,-1.8428598E-2,6.251929E-2,5.1820148E-2,-5.3242195E-2,5.483942E-2,-9.205141E-3,-3.620183E-3,6.403324E-2,1.3059357E-2,6.544288E-2,-6.1877947E-2,3.4268156E-2,3.132866E-2,-5.9068114E-2],"categories":[],"categories_nodes":[],"categories_segments":[],"categories_sizes":[],"default_left":[0,0,0,0,0,0,0,0,0,0,0,0,0,0,0,0,0,0,0,0,0,0,0,0,0,0,0,0,0,0,0,0,0,0,0,0,0,0,0,0,0,0,0,0,0,0,0,0,0,0,0,0,0,0,0,0,0,0,0,0,0,0,0,0,0,0,0,0,0,0,0,0,0,0,0],"id":9,"left_children":[1,3,5,-1,7,9,11,13,15,-1,17,19,21,-1,-1,23,25,27,29,31,33,35,37,-1,-1,-1,39,-1,-1,41,43,-1,45,47,49,51,53,55,57,-1,59,-1,-1,-1,61,-1,-1,-1,63,-1,65,-1,-1,-1,67,-1,69,71,73,-1,-1,-1,-1,-1,-1,-1,-1,-1,-1,-1,-1,-1,-1,-1,-1],"loss_changes":[9.072557E1,1.4084862E1,5.8908485E1,0E0,1.2093811E1,2.0886738E1,4.2718037E1,1.1351819E0,6.8606873E0,0E0,1.5755234E1,1.682533E1,3.922274E1,0E0,0E0,6.1274548E0,3.5845032E0,1.8063002E0,1.0089661E1,1.6478792E1,1.4463034E1,1.5694132E1,3.7102966E1,0E0,0E0,0E0,2.310318E0,0E0,0E0,5.8981743E0,1.0757519E1,0E0,1.4655722E1,1.3816874E1,1.4450151E1,7.2787642E0,6.7661247E0,1.4004633E1,3.501512E1,0E0,6.144409E-1,0E0,0E0,0E0,5.4465485E0,0E0,0E0,0E0,9.07951E0,0E0,8.101963E0,0E0,0E0,0E0,2.1917362E0,0E0,4.3397903E-1,1.64552E1,3.531038E1,0E0,0E0,0E0,0E0,0E0,0E0,0E0,0E0,0E0,0E0,0E0,0E0,0E0,0E0,0E0,0E0],"parents":[2147483647,0,0,1,1,2,2,4,4,5,5,6,6,7,7,8,8,10,10,11,11,12,12,15,15,16,16,17,17,18,18,19,19,20,20,21,21,22,22,26,26,29,29,30,30,32,32,33,33,34,34,35,35,36,36,37,37,38,38,40,40,44,44,48,48,50,50,54,54,56,56,57,57,58,58],"right_children":[2,4,6,-1,8,10,12,14,16,-1,18,20,22,-1,-1,24,26,28,30,32,34,36,38,-1,-1,-1,40,-1,-1,42,44,-1,46,48,50,52,54,56,58,-1,60,-1,-1,-1,62,-1,-1,-1,64,-1,66,-1,-1,-1,68,-1,70,72,74,-1,-1,-1,-1,-1,-1,-1,-1,-1,-1,-1,-1,-1,-1,-1,-1],"split_conditions":[1.7E2,1E0,1.81E2,-5.3661674E-2,2E0,1E0,1.91E2,1.93E2,1E0,-8.1416026E-2,1E0,1E0,1.82E2,-6.3276365E-2,-1.7468891E-3,2.46E2,1E0,2.01E2,1E0,1.93E2,1E0,1.88E2,1.11E2,-6.51394E-2,4.4373553E-2,-8.156798E-3,2E0,-1.3840634E-3,-7.4581414E-2,2.52E2,1E0,5.2555263E-2,1.79E2,1.94E2,2.2E1,1.76E2,1.55E2,2.06E2,1.57E2,-2.450997E-3,1E0,3.930555E-2,-7.0554E-2,-5.884189E-2,4E0,3.8895216E-2,-9.523169E-2,-8.441987E-2,2.52E2,-5.9943408E-2,2.51E2,3.6662478E-2,-8.3538845E-2,-3.7358437E-2,6.6E1,-5.557626E-2,1.91E2,1E0,1.65E2,1.1484685E-2,6.561228E-2,-1.8428598E-2,6.251929E-2,5.1820148E-2,-5.3242195E-2,5.483942E-2,-9.205141E-3,-3.620183E-3,6.403324E-2,1.3059357E-2,6.544288E-2,-6.1877947E-2,3.4268156E-2,3.132866E-2,-5.9068114E-2],"split_indices":[347,2483,3121,0,3884,807,3086,86,1264,0,2508,4001,3151,0,0,332,1363,2832,3791,1621,1982,3125,1890,0,0,0,1974,0,0,7,2655,0,1358,780,730,292,151,2031,1718,0,765,0,0,0,954,0,0,0,1167,0,2586,0,0,0,566,0,2495,99,2205,0,0,0,0,0,0,0,0,0,0,0,0,0,0,0,0],"split_type":[0,0,0,0,0,0,0,0,0,0,0,0,0,0,0,0,0,0,0,0,0,0,0,0,0,0,0,0,0,0,0,0,0,0,0,0,0,0,0,0,0,0,0,0,0,0,0,0,0,0,0,0,0,0,0,0,0,0,0,0,0,0,0,0,0,0,0,0,0,0,0,0,0,0,0],"sum_hessian":[4.1570245E2,7.4177925E1,3.415245E2,2.3723996E0,7.180553E1,5.7684044E1,2.8384048E2,2.444825E0,6.93607E1,2.7112122E0,5.497283E1,6.903152E1,2.1480896E2,1.2267771E0,1.2180479E0,3.1452036E0,6.62155E1,3.2026176E0,5.1770214E1,1.29331455E1,5.609837E1,2.2352182E1,1.9245677E2,1.4875207E0,1.6576829E0,1.5654578E0,6.465004E1,1.2300247E0,1.9725931E0,3.2250178E0,4.8545193E1,3.1835566E0,9.74959E0,1.1720717E1,4.4377655E1,4.114539E0,1.8237644E1,1.3612135E1,1.7884464E2,1.2242811E0,6.3425762E1,1.2335956E0,1.9914222E0,1.2429754E0,4.730222E1,2.0502384E0,7.6993513E0,4.237208E0,7.48351E0,2.5957284E0,4.1781925E1,1.1649152E0,2.9496238E0,1.3390175E0,1.6898626E1,2.3448205E0,1.1267314E1,2.3291494E1,1.5555315E2,1.0033948E0,6.2422367E1,1.755996E0,4.5546223E1,5.3817587E0,2.101751E0,3.6395782E1,5.386143E0,1.1776822E0,1.5720943E1,1.0023724E0,1.0264942E1,4.7947664E0,1.8496727E1,1.1061016E1,1.4449213E2],"tree_param":{"num_deleted":"0","num_feature":"4096","num_nodes":"75","size_leaf_vector":"1"}},{"base_weights":[1.1932891E-2,8.515058E-1,-2.3153271E-1,-7.711272E-2,9.5522624E-1,6.4869756E-1,-3.9317477E-1,-2.5868437E-1,1.0647862E0,8.8628936E-1,-3.672428E-1,8.475312E-1,-5.0080746E-1,-7.7136286E-2,7.702036E-1,1.1693662E0,1.0938223E-1,-5.8010846E-2,9.7960204E-1,-1.4929289E0,5.335873E-2,-6.562153E-2,1.0981089E0,3.929052E-1,-6.5406567E-1,-2.8483267E-3,5.1049083E-2,-6.949412E-3,1.202812E0,5.422164E-2,-8.885851E-1,-4.423431E-2,1.0968626E0,-2.1405414E-2,-8.254792E-2,-2.815401E-2,1.2218581E0,-1.3770434E0,6.406826E-1,-1.6691011E-1,-1.0045681E0,-4.895942E-3,1.2375486E0,3.5302475E-2,-7.563992E-2,-2.5550077E-2,1.2044835E0,1.0800358E-2,6.326416E-2,-2.1514969E-2,-7.775347E-2,-7.359545E-2,8.590485E-1,9.947308E-1,-4.5713642E-1,-1.5361608E0,-5.2608407E-1,7.033364E-3,6.35197E-2,-2.8379443E-3,6.261508E-2,-5.4804977E-2,5.3090233E-2,-3.3760283E-2,6.330784E-2,-5.181248E-2,8.852364E-3,-2.0342008E-3,-8.7177865E-2,2.5163496E-2,-4.7716074E-2],"categories":[],"categories_nodes":[],"categories_segments":[],"categories_sizes":[],"default_left":[0,0,0,0,0,0,0,0,0,0,0,0,0,0,0,0,0,0,0,0,0,0,0,0,0,0,0,0,0,0,0,0,0,0,0,0,0,0,0,0,0,0,0,0,0,0,0,0,0,0,0,0,0,0,0,0,0,0,0,0,0,0,0,0,0,0,0,0,0,0,0],"id":10,"left_children":[1,3,5,-1,7,9,11,13,15,17,19,21,23,-1,25,27,29,-1,31,33,-1,-1,35,37,39,-1,-1,-1,41,-1,43,-1,45,-1,-1,-1,47,49,51,53,55,-1,57,-1,-1,-1,59,-1,-1,-1,-1,-1,61,63,65,67,69,-1,-1,-1,-1,-1,-1,-1,-1,-1,-1,-1,-1,-1,-1],"loss_changes":[8.448762E1,2.4541801E1,4.5849762E1,0E0,1.2201439E1,1.2417185E1,3.666178E1,1.205822E1,8.109596E0,8.94558E0,1.8066076E1,1.3366249E1,3.4543762E1,0E0,1.1440322E0,3.414383E0,9.952123E0,0E0,9.638462E0,3.2520962E-1,0E0,0E0,4.858427E0,1.7226238E1,3.638247E1,0E0,0E0,0E0,3.3951569E0,0E0,6.1591706E0,0E0,7.147999E0,0E0,0E0,0E0,5.65155E-1,1.5572166E-1,1.6660435E1,3.1056011E1,3.0806053E1,0E0,2.3666153E0,0E0,0E0,0E0,2.223011E0,0E0,0E0,0E0,0E0,0E0,1.3404804E1,9.221804E0,2.7107021E1,1.8028732E1,2.9984978E1,0E0,0E0,0E0,0E0,0E0,0E0,0E0,0E0,0E0,0E0,0E0,0E0,0E0,0E0],"parents":[2147483647,0,0,1,1,2,2,4,4,5,5,6,6,7,7,8,8,9,9,10,10,11,11,12,12,14,14,15,15,16,16,18,18,19,19,22,22,23,23,24,24,28,28,30,30,32,32,36,36,37,37,38,38,39,39,40,40,42,42,46,46,52,52,53,53,54,54,55,55,56,56],"right_children":[2,4,6,-1,8,10,12,14,16,18,20,22,24,-1,26,28,30,-1,32,34,-1,-1,36,38,40,-1,-1,-1,42,-1,44,-1,46,-1,-1,-1,48,50,52,54,56,-1,58,-1,-1,-1,60,-1,-1,-1,-1,-1,62,64,66,68,70,-1,-1,-1,-1,-1,-1,-1,-1,-1,-1,-1,-1,-1,-1],"split_conditions":[1.95E2,1E0,1.79E2,-7.711272E-2,1E0,2.55E2,1.74E2,2.22E2,2.55E2,1E0,2.54E2,1E0,1.73E2,-7.7136286E-2,1.95E2,7E0,2.02E2,-5.8010846E-2,1E0,4.4E1,5.335873E-2,-6.562153E-2,1E1,3E0,2.1E2,-2.8483267E-3,5.1049083E-2,-6.949412E-3,1E0,5.422164E-2,1.71E2,-4.423431E-2,1E0,-2.1405414E-2,-8.254792E-2,-2.815401E-2,4E0,1.96E2,1E0,1.53E2,2.3E2,-4.895942E-3,2E0,3.5302475E-2,-7.563992E-2,-2.5550077E-2,9E0,1.0800358E-2,6.326416E-2,-2.1514969E-2,-7.775347E-2,-7.359545E-2,1E0,1.79E2,2.16E2,1.29E2,2.14E2,7.033364E-3,6.35197E-2,-2.8379443E-3,6.261508E-2,-5.4804977E-2,5.3090233E-2,-3.3760283E-2,6.330784E-2,-5.181248E-2,8.852364E-3,-2.0342008E-3,-8.7177865E-2,2.5163496E-2,-4.7716074E-2],"split_indices":[1889,2006,3151,0,2750,2548,3086,3018,347,711,881,3219,3502,0,127,3313,2357,0,2700,221,0,0,302,1982,3934,0,0,0,3244,0,408,0,3934,0,0,0,954,2644,3988,161,2606,0,3493,0,0,0,817,0,0,0,0,0,1406,625,2128,958,2859,0,0,0,0,0,0,0,0,0,0,0,0,0,0],"split_type":[0,0,0,0,0,0,0,0,0,0,0,0,0,0,0,0,0,0,0,0,0,0,0,0,0,0,0,0,0,0,0,0,0,0,0,0,0,0,0,0,0,0,0,0,0,0,0,0,0,0,0,0,0,0,0,0,0,0,0,0,0,0,0,0,0,0,0,0,0,0,0],"sum_hessian":[4.1136557E2,9.1913E1,3.1945258E2,3.2411551E0,8.867185E1,4.9094227E1,2.7035834E2,7.227782E0,8.144407E1,3.989244E1,9.201786E0,2.1032917E1,2.4932542E2,2.9930615E0,4.23472E0,7.320678E1,8.237285E0,1.2410239E0,3.8651417E1,5.132875E0,4.0689116E0,1.7458856E0,1.9287031E1,3.6267982E1,2.1305743E2,1.1649789E0,3.0697415E0,1.746097E0,7.1460686E1,4.1226563E0,4.114628E0,1.8999567E0,3.675146E1,1.1426448E0,3.99023E0,1.0910321E0,1.8196E1,3.8940468E0,3.2373936E1,8.9767624E1,1.2328982E2,1.8114363E0,6.964925E1,1.1206578E0,2.9939704E0,2.0704634E0,3.4681E1,1.000304E0,1.7195696E1,1.1571845E0,2.7368622E0,2.495035E0,2.9878899E1,1.7459188E1,7.230843E1,5.735657E1,6.593324E1,2.1785533E0,6.7470695E1,1.2600161E0,3.3420982E1,2.3934278E0,2.7485472E1,2.233018E0,1.522617E1,3.7463844E1,3.4844593E1,7.131262E0,5.022531E1,1.9319576E1,4.6613667E1],"tree_param":{"num_deleted":"0","num_feature":"4096","num_nodes":"71","size_leaf_vector":"1"}},{"base_weights":[1.0766888E-2,9.6048206E-1,-1.9457091E-1,1.1349976E0,-2.6556155E-1,6.8072104E-1,-3.5345E-1,-3.7129578E-1,1.1965224E0,-6.909004E-2,8.584165E-1,-9.6800184E-1,8.5092604E-1,6.626503E-1,-4.8609465E-1,3.241264E-2,-5.6289535E-2,-1.8666292E-2,1.2481607E0,-3.275459E-3,5.6275994E-2,3.4572106E-2,-7.792207E-2,-4.986174E-2,9.576146E-1,1.1843045E0,-2.2341701E-1,4.7355336E-1,-6.3545537E-1,1.3120401E-2,6.317886E-2,-5.6216817E-2,1.0417104E0,-6.7338794E-3,6.331194E-2,-8.024063E-2,4.9024555E-1,-9.525585E-1,7.8813016E-1,4.4510895E-1,-7.6401645E-1,-3.442279E-1,1.1416337E0,9.7782475E-1,-6.342841E-2,3.9364427E-2,-7.939621E-2,1.1457853E0,-2.0247896E-1,-1.1188197E0,9.566925E-1,2.989391E-1,-9.229576E-1,3.9664853E-2,-6.159494E-2,-2.8770972E-2,6.0893077E-2,-3.7693717E-3,5.8611274E-2,-2.9684111E-2,6.3304484E-2,3.744823E-2,-6.4105935E-2,3.6816493E-2,-8.304544E-2,-3.8636137E-2,5.8547914E-2,-4.6172988E-2,3.5898823E-2,6.5857376E-4,-5.542448E-2],"categories":[],"categories_nodes":[],"categories_segments":[],"categories_sizes":[],"default_left":[0,0,0,0,0,0,0,0,0,0,0,0,0,0,0,0,0,0,0,0,0,0,0,0,0,0,0,0,0,0,0,0,0,0,0,0,0,0,0,0,0,0,0,0,0,0,0,0,0,0,0,0,0,0,0,0,0,0,0,0,0,0,0,0,0,0,0,0,0,0,0],"id":11,"left_children":[1,3,5,7,9,11,13,15,17,-1,19,21,23,25,27,-1,-1,-1,29,-1,-1,-1,-1,-1,31,33,35,37,39,-1,-1,-1,41,-1,-1,-1,43,45,47,49,51,53,55,57,-1,-1,-1,59,61,63,65,67,69,-1,-1,-1,-1,-1,-1,-1,-1,-1,-1,-1,-1,-1,-1,-1,-1,-1,-1],"loss_changes":[7.9695595E1,1.5845573E1,4.69753E1,6.355583E0,1.35602E1,1.5407791E1,3.8746815E1,3.2423656E0,5.4530334E0,0E0,1.438726E0,6.300845E0,1.034848E1,1.5676156E1,3.652838E1,0E0,0E0,0E0,5.770569E-1,0E0,0E0,0E0,0E0,0E0,9.146271E0,2.4557343E0,1.3796896E1,1.627893E1,3.0782112E1,0E0,0E0,0E0,6.5280724E0,0E0,0E0,0E0,9.359377E0,8.6654825E0,1.0472961E1,2.021761E1,3.342411E1,4.761316E0,6.1395454E0,1.7216811E0,0E0,0E0,0E0,5.227335E0,9.709568E0,7.6186976E0,7.78673E0,1.4122957E1,2.9701569E1,0E0,0E0,0E0,0E0,0E0,0E0,0E0,0E0,0E0,0E0,0E0,0E0,0E0,0E0,0E0,0E0,0E0,0E0],"parents":[2147483647,0,0,1,1,2,2,3,3,4,4,5,5,6,6,7,7,8,8,10,10,11,11,12,12,13,13,14,14,18,18,24,24,25,25,26,26,27,27,28,28,32,32,36,36,37,37,38,38,39,39,40,40,41,41,42,42,43,43,47,47,48,48,49,49,50,50,51,51,52,52],"right_children":[2,4,6,8,10,12,14,16,18,-1,20,22,24,26,28,-1,-1,-1,30,-1,-1,-1,-1,-1,32,34,36,38,40,-1,-1,-1,42,-1,-1,-1,44,46,48,50,52,54,56,58,-1,-1,-1,60,62,64,66,68,70,-1,-1,-1,-1,-1,-1,-1,-1,-1,-1,-1,-1,-1,-1,-1,-1,-1,-1],"split_conditions":[1.71E2,2.5E2,1.81E2,1E0,2.39E2,1.4E1,1.83E2,1.91E2,1E0,-6.909004E-2,2.21E2,9.5E1,1E0,2.34E2,1.81E2,3.241264E-2,-5.6289535E-2,-1.8666292E-2,3.3E1,-3.275459E-3,5.6275994E-2,3.4572106E-2,-7.792207E-2,-4.986174E-2,1E0,8.7E1,2.25E2,2.1E1,1.66E2,1.3120401E-2,6.317886E-2,-5.6216817E-2,3E0,-6.7338794E-3,6.331194E-2,-8.024063E-2,2.51E2,1.84E2,2.39E2,2.04E2,1.76E2,2.15E2,1E0,2.05E2,-6.342841E-2,3.9364427E-2,-7.939621E-2,2.1E1,2.42E2,1.4E2,1.85E2,1.09E2,1.78E2,3.9664853E-2,-6.159494E-2,-2.8770972E-2,6.0893077E-2,-3.7693717E-3,5.8611274E-2,-2.9684111E-2,6.3304484E-2,3.744823E-2,-6.4105935E-2,3.6816493E-2,-8.304544E-2,-3.8636137E-2,5.8547914E-2,-4.6172988E-2,3.5898823E-2,6.5857376E-4,-5.542448E-2],"split_indices":[3748,1144,974,1612,539,3289,2205,0,2591,0,361,154,3097,3943,3047,0,0,0,2047,0,0,0,0,0,631,31,1061,86,2953,0,0,0,1441,0,0,0,3525,809,935,1634,3473,35,870,1052,0,0,0,663,3795,78,1783,2433,1529,0,0,0,0,0,0,0,0,0,0,0,0,0,0,0,0,0,0],"split_type":[0,0,0,0,0,0,0,0,0,0,0,0,0,0,0,0,0,0,0,0,0,0,0,0,0,0,0,0,0,0,0,0,0,0,0,0,0,0,0,0,0,0,0,0,0,0,0,0,0,0,0,0,0,0,0,0,0,0,0,0,0,0,0,0,0,0,0,0,0,0,0],"sum_hessian":[4.0671094E2,7.164865E1,3.350623E2,6.2785942E1,8.862713E0,5.097082E1,2.840915E2,2.266282E0,6.0519657E1,4.3315763E0,4.5311365E0,4.330952E0,4.6639866E1,3.2342434E1,2.5174905E2,1.0237293E0,1.2425528E0,1.728939E0,5.8790718E1,1.1854253E0,3.3457112E0,1.0916843E0,3.2392678E0,2.0898771E0,4.454999E1,2.014556E1,1.2196875E1,3.3613106E1,2.1813594E2,1.1827908E0,5.760793E1,1.2493843E0,4.3300606E1,1.1405885E0,1.900497E1,3.7293966E0,8.467478E0,5.70804E0,2.7905064E1,2.2931656E1,1.9520428E2,2.7475238E0,4.055308E1,6.9772773E0,1.490201E0,1.4629298E0,4.2451105E0,2.0387571E1,7.517493E0,5.3597474E0,1.7571907E1,2.5277092E1,1.699272E2,1.2508769E0,1.496647E0,1.44544E0,3.9107643E1,1.1825792E0,5.7946978E0,1.0642897E0,1.9323282E1,4.158795E0,3.358698E0,1.1309762E0,4.228771E0,1.6497569E0,1.5922151E1,6.145608E0,1.9131485E1,2.8261028E1,1.4166617E2],"tree_param":{"num_deleted":"0","num_feature":"4096","num_nodes":"71","size_leaf_vector":"1"}},{"base_weights":[1.0110719E-2,9.5700085E-1,-1.8688232E-1,-4.997361E-2,1.040481E0,6.6832054E-1,-3.5678118E-1,-7.983016E-1,1.1212447E0,-7.429059E-2,8.0730855E-1,7.5338566E-1,-4.7181407E-1,-2.0287798E-3,-5.878612E-2,-2.1510749E-1,1.1906139E0,-9.870979E-1,9.4287455E-1,-4.8429005E-2,9.385623E-1,4.6983552E-1,-6.172788E-1,-5.9859432E-2,4.1483875E-2,-8.467642E-3,1.2280099E0,3.75465E-4,-6.98372E-2,-5.306438E-1,1.0546844E0,-5.4223806E-2,1.0933809E0,-9.4158447E-1,7.668769E-1,4.5743528E-1,-7.580144E-1,-2.8621121E-3,1.2547166E0,3.770926E-2,-6.45925E-2,-5.496512E-2,1.1380763E0,-3.6400087E-2,1.2339346E0,4.0062264E-2,-8.112402E-2,-3.8484186E-1,1.0649447E0,-1.0735949E0,8.3551735E-1,4.1007677E-1,-8.873499E-1,1.5111268E-2,6.346708E-2,-1.6220495E-2,6.0279656E-2,-3.1115403E-3,6.539515E-2,4.723842E-2,-7.682977E-2,-3.1888735E-2,5.988887E-2,-7.684254E-2,2.0496175E-2,-5.9675395E-2,5.2312266E-2,4.9584813E-2,-3.206381E-2,2.5884507E-2,-4.9335077E-2],"categories":[],"categories_nodes":[],"categories_segments":[],"categories_sizes":[],"default_left":[0,0,0,0,0,0,0,0,0,0,0,0,0,0,0,0,0,0,0,0,0,0,0,0,0,0,0,0,0,0,0,0,0,0,0,0,0,0,0,0,0,0,0,0,0,0,0,0,0,0,0,0,0,0,0,0,0,0,0,0,0,0,0,0,0,0,0,0,0,0,0],"id":12,"left_children":[1,3,5,-1,7,9,11,13,15,-1,17,19,21,-1,-1,23,25,27,29,-1,31,33,35,-1,-1,-1,37,-1,-1,39,41,-1,43,45,47,49,51,-1,53,-1,-1,-1,55,-1,57,-1,-1,59,61,63,65,67,69,-1,-1,-1,-1,-1,-1,-1,-1,-1,-1,-1,-1,-1,-1,-1,-1,-1,-1],"loss_changes":[7.5383766E1,1.2406837E1,4.8852364E1,0E0,1.0880432E1,1.7906242E1,3.6084946E1,9.2838526E-1,6.2654877E0,0E0,1.383976E1,9.407971E0,3.5099445E1,0E0,0E0,5.1446743E0,3.3498993E0,1.7282763E0,8.772762E0,0E0,8.882206E0,1.52163925E1,3.370572E1,0E0,0E0,0E0,2.1397781E0,0E0,0E0,5.0635347E0,9.634106E0,0E0,6.869396E0,8.965668E0,1.0403799E1,1.6040672E1,2.988301E1,0E0,4.3915558E-1,0E0,0E0,0E0,4.8761253E0,0E0,2.1929932E0,0E0,0E0,1.1742424E1,6.0547295E0,4.4914165E0,1.0459784E1,1.2964706E1,2.5111465E1,0E0,0E0,0E0,0E0,0E0,0E0,0E0,0E0,0E0,0E0,0E0,0E0,0E0,0E0,0E0,0E0,0E0,0E0],"parents":[2147483647,0,0,1,1,2,2,4,4,5,5,6,6,7,7,8,8,10,10,11,11,12,12,15,15,16,16,17,17,18,18,20,20,21,21,22,22,26,26,29,29,30,30,32,32,33,33,34,34,35,35,36,36,38,38,42,42,44,44,47,47,48,48,49,49,50,50,51,51,52,52],"right_children":[2,4,6,-1,8,10,12,14,16,-1,18,20,22,-1,-1,24,26,28,30,-1,32,34,36,-1,-1,-1,38,-1,-1,40,42,-1,44,46,48,50,52,-1,54,-1,-1,-1,56,-1,58,-1,-1,60,62,64,66,68,70,-1,-1,-1,-1,-1,-1,-1,-1,-1,-1,-1,-1,-1,-1,-1,-1,-1,-1],"split_conditions":[1.7E2,1E0,1.81E2,-4.997361E-2,2E0,1E0,1.76E2,1.97E2,1E0,-7.429059E-2,1E0,6E0,1.8E2,-2.0287798E-3,-5.878612E-2,2.46E2,1E0,2.07E2,1E0,-4.8429005E-2,1E0,1.76E2,1.83E2,-5.9859432E-2,4.1483875E-2,-8.467642E-3,1E0,3.75465E-4,-6.98372E-2,2.52E2,1E0,-5.4223806E-2,1E1,1.54E2,1.71E2,2.02E2,1.71E2,-2.8621121E-3,1.6E1,3.770926E-2,-6.45925E-2,-5.496512E-2,1E0,-3.6400087E-2,1.19E2,4.0062264E-2,-8.112402E-2,1.76E2,1E0,2.2E2,2E0,2.48E2,1.77E2,1.5111268E-2,6.346708E-2,-1.6220495E-2,6.0279656E-2,-3.1115403E-3,6.539515E-2,4.723842E-2,-7.682977E-2,-3.1888735E-2,5.988887E-2,-7.684254E-2,2.0496175E-2,-5.9675395E-2,5.2312266E-2,4.9584813E-2,-3.206381E-2,2.5884507E-2,-4.9335077E-2],"split_indices":[347,2483,3121,0,3884,807,3184,234,1264,0,2508,501,944,0,0,332,1363,1447,3791,0,710,3364,1009,0,0,0,918,0,0,7,2655,0,3022,230,3258,2479,2551,0,1924,0,0,0,2755,0,69,0,0,1189,1779,991,3946,2284,4049,0,0,0,0,0,0,0,0,0,0,0,0,0,0,0,0,0,0],"split_type":[0,0,0,0,0,0,0,0,0,0,0,0,0,0,0,0,0,0,0,0,0,0,0,0,0,0,0,0,0,0,0,0,0,0,0,0,0,0,0,0,0,0,0,0,0,0,0,0,0,0,0,0,0,0,0,0,0,0,0,0,0,0,0,0,0,0,0,0,0,0,0],"sum_hessian":[4.0217706E2,6.859623E1,3.335808E2,2.3581052E0,6.623812E1,5.4800983E1,2.7877985E2,2.4131248E0,6.3824997E1,2.7342029E0,5.206678E1,2.565337E1,2.5312646E2,1.1705623E0,1.2425625E0,3.0459416E0,6.0779053E1,3.2160838E0,4.8850697E1,2.080076E0,2.3573294E1,3.3571995E1,2.1955447E2,1.4948941E0,1.5510476E0,1.5321338E0,5.924692E1,1.22456E0,1.9915239E0,3.1811423E0,4.566955E1,1.2489018E0,2.2324392E1,5.4597244E0,2.8112272E1,2.5161413E1,1.9439307E2,1.1827754E0,5.8064144E1,1.1869427E0,1.9941995E0,1.2481388E0,4.4421413E1,1.2999033E0,2.1024488E1,1.4841427E0,3.9755816E0,5.7198706E0,2.23924E1,4.6186733E0,2.054274E1,1.9161917E1,1.7523114E2,1.2056838E0,5.685846E1,1.7923517E0,4.2629063E1,1.1435982E0,1.9880892E1,2.7383595E0,2.981511E0,1.3453717E0,2.104703E1,3.492215E0,1.1264583E0,1.4939817E0,1.9048758E1,1.2373506E1,6.788411E0,1.1294376E1,1.6393677E2],"tree_param":{"num_deleted":"0","num_feature":"4096","num_nodes":"71","size_leaf_vector":"1"}},{"base_weights":[9.090408E-3,8.5136807E-1,-1.994538E-1,1.0586926E0,-2.672409E-1,6.77935E-1,-3.4481534E-1,1.1473852E0,-7.752916E-1,9.7335577E-1,-1.1794823E0,-3.4589508E-1,9.461898E-1,6.531672E-1,-4.6614462E-1,-3.336384E-2,1.1956393E0,-5.741471E-2,8.3885105E-5,1.4751536E-2,5.3463366E-2,-8.283653E-2,2.3512779E-2,5.641072E-1,-1.2838472E0,-4.4331294E-2,1.0680577E0,-4.22873E-1,9.3038905E-1,6.744229E-1,-5.8366287E-1,-2.0406013E-3,1.2322493E0,5.1388294E-2,-3.0154675E-2,-1.7749548E-2,-7.2319664E-2,-2.0933429E-2,1.1527932E0,4.6428386E-2,-7.471798E-2,-3.576104E-2,1.0762491E0,1.1307777E0,-2.9132393E-1,2.4822485E-1,-7.2700006E-1,1.4997122E-2,6.2247247E-2,-2.24998E-2,1.2233167E0,-2.8168008E-2,1.1805018E0,-2.4073808E-2,6.383069E-2,8.5998046E-1,-6.6066444E-2,7.624314E-1,-7.557229E-1,4.6946388E-1,-8.414886E-1,-4.5753247E-3,6.3720666E-2,-5.7392395E-3,6.43623E-2,1.32893985E-2,4.7739316E-2,-3.1415395E-2,5.4229498E-2,-8.5106015E-2,2.896508E-2,-5.970616E-2,4.7940165E-2,2.1482434E-2,-4.838329E-2],"categories":[],"categories_nodes":[],"categories_segments":[],"categories_sizes":[],"default_left":[0,0,0,0,0,0,0,0,0,0,0,0,0,0,0,0,0,0,0,0,0,0,0,0,0,0,0,0,0,0,0,0,0,0,0,0,0,0,0,0,0,0,0,0,0,0,0,0,0,0,0,0,0,0,0,0,0,0,0,0,0,0,0,0,0,0,0,0,0,0,0,0,0,0,0],"id":13,"left_children":[1,3,5,7,9,11,13,15,17,19,21,23,25,27,29,-1,31,-1,-1,-1,-1,-1,-1,33,35,-1,37,39,41,43,45,-1,47,-1,-1,-1,-1,-1,49,-1,-1,-1,51,53,55,57,59,-1,-1,-1,61,-1,63,-1,-1,65,-1,67,69,71,73,-1,-1,-1,-1,-1,-1,-1,-1,-1,-1,-1,-1,-1,-1],"loss_changes":[7.0172226E1,1.8669407E1,4.10777E1,1.1801857E1,1.608108E1,1.2920778E1,3.3650455E1,6.4365234E0,1.0717468E0,8.3936214E-2,7.1217394E0,9.474777E0,9.122269E0,9.422489E0,3.3383766E1,0E0,2.9059296E0,0E0,0E0,0E0,0E0,0E0,0E0,3.8119037E0,2.9486656E-1,0E0,4.86327E0,1.13619175E1,6.621681E0,1.0666436E1,2.685115E1,0E0,3.5217285E-1,0E0,0E0,0E0,0E0,0E0,4.2991905E0,0E0,0E0,0E0,4.561365E0,4.407894E0,1.10047E1,1.7932259E1,2.656549E1,0E0,0E0,0E0,2.2688599E0,0E0,3.155653E0,0E0,0E0,1.7137527E-3,0E0,1.0865724E1,1.6008127E1,1.5249983E1,2.8439514E1,0E0,0E0,0E0,0E0,0E0,0E0,0E0,0E0,0E0,0E0,0E0,0E0,0E0,0E0],"parents":[2147483647,0,0,1,1,2,2,3,3,4,4,5,5,6,6,7,7,8,8,9,9,10,10,11,11,12,12,13,13,14,14,16,16,23,23,24,24,26,26,27,27,28,28,29,29,30,30,32,32,38,38,42,42,43,43,44,44,45,45,46,46,50,50,52,52,55,55,57,57,58,58,59,59,60,60],"right_children":[2,4,6,8,10,12,14,16,18,20,22,24,26,28,30,-1,32,-1,-1,-1,-1,-1,-1,34,36,-1,38,40,42,44,46,-1,48,-1,-1,-1,-1,-1,50,-1,-1,-1,52,54,56,58,60,-1,-1,-1,62,-1,64,-1,-1,66,-1,68,70,72,74,-1,-1,-1,-1,-1,-1,-1,-1,-1,-1,-1,-1,-1,-1],"split_conditions":[1.61E2,2.55E2,1.63E2,2.54E2,1.7E2,1E0,1.72E2,1E0,2.19E2,2.22E2,2.55E2,2.36E2,1E0,1.97E2,1.84E2,-3.336384E-2,1E0,-5.741471E-2,8.3885105E-5,1.4751536E-2,5.3463366E-2,-8.283653E-2,2.3512779E-2,1.81E2,1.93E2,-4.4331294E-2,1.07E2,1.91E2,1E0,2.37E2,1.71E2,-2.0406013E-3,7E0,5.1388294E-2,-3.0154675E-2,-1.7749548E-2,-7.2319664E-2,-2.0933429E-2,2E0,4.6428386E-2,-7.471798E-2,-3.576104E-2,1.56E2,1.87E2,2.1E2,2.41E2,1.68E2,1.4997122E-2,6.2247247E-2,-2.24998E-2,2.6E1,-2.8168008E-2,9.6E1,-2.4073808E-2,6.383069E-2,2.25E2,-6.6066444E-2,1.76E2,2.48E2,1.57E2,1.99E2,-4.5753247E-3,6.3720666E-2,-5.7392395E-3,6.43623E-2,1.32893985E-2,4.7739316E-2,-3.1415395E-2,5.4229498E-2,-8.5106015E-2,2.896508E-2,-5.970616E-2,4.7940165E-2,2.1482434E-2,-4.838329E-2],"split_indices":[3185,1642,503,107,3337,2046,1269,2540,315,2198,2384,162,3699,2969,1890,0,1335,0,0,0,0,0,0,437,853,0,2240,2447,1675,3159,1673,0,312,0,0,0,0,0,1839,0,0,0,3203,1420,2574,974,2210,0,0,0,1370,0,1072,0,0,37,0,3790,1528,2621,13,0,0,0,0,0,0,0,0,0,0,0,0,0,0],"split_type":[0,0,0,0,0,0,0,0,0,0,0,0,0,0,0,0,0,0,0,0,0,0,0,0,0,0,0,0,0,0,0,0,0,0,0,0,0,0,0,0,0,0,0,0,0,0,0,0,0,0,0,0,0,0,0,0,0,0,0,0,0,0,0,0,0,0,0,0,0,0,0,0,0,0,0],"sum_hessian":[3.9752875E2,7.8281105E1,3.1924765E2,6.608617E1,1.2194937E1,4.485333E1,2.7439432E2,6.3394733E1,2.691433E0,5.1390824E0,7.055855E0,9.252086E0,3.5601242E1,2.9268185E1,2.4512613E2,1.3097907E0,6.208494E1,1.495546E0,1.1958869E0,1.1415623E0,3.99752E0,5.4693904E0,1.5864642E0,4.8983126E0,4.353773E0,1.8283727E0,3.377287E1,5.8880906E0,2.3380095E1,2.245466E1,2.2267146E2,1.7821069E0,6.0302837E1,3.5912042E0,1.3071085E0,1.1226162E0,3.231157E0,1.608583E0,3.2164288E1,2.6628656E0,3.2252252E0,1.5857716E0,2.1794323E1,1.5132875E1,7.3217854E0,3.262039E1,1.9005107E2,1.1409674E0,5.916187E1,1.1288184E0,3.1035467E1,1.039651E0,2.0754671E1,1.0643816E0,1.4068494E1,3.5352616E0,3.7865236E0,2.1730785E1,1.08896055E1,1.6326826E1,1.7372426E2,1.1313953E0,2.9904072E1,1.5744305E0,1.918024E1,1.0098097E0,2.5254521E0,3.9083529E0,1.7822432E1,6.2113867E0,4.6782184E0,3.3835695E0,1.2943256E1,1.5470078E1,1.5825418E2],"tree_param":{"num_deleted":"0","num_feature":"4096","num_nodes":"75","size_leaf_vector":"1"}},{"base_weights":[8.731573E-3,8.697776E-1,-1.8685466E-1,1.0143155E0,-3.8462308E-1,6.507477E-1,-3.1769827E-1,-5.9479564E-2,1.0926119E0,-7.586645E-2,7.5273764E-1,-4.960901E-1,9.065696E-1,5.875159E-1,-4.403165E-1,-3.896394E-2,1.1517967E0,-6.3073994E-3,5.1672548E-2,-6.926604E-2,4.082389E-2,-5.533495E-2,1.0101894E0,-7.151842E-2,8.1188107E-1,5.9133095E-1,-5.605547E-1,-8.422082E-3,1.1868578E0,-2.8099135E-2,1.0926354E0,-5.0603162E-2,9.923979E-1,-5.8032566E-1,1.0333973E0,2.1340828E-1,-7.2721136E-1,8.8286394E-4,1.2225224E0,-2.8278226E-2,1.1622865E0,-3.7396844E-2,1.1234463E0,3.9704677E-2,-7.6224186E-2,-4.4620818E-1,1.2747135E0,7.651554E-1,-8.6087936E-1,5.362138E-1,-8.727863E-1,1.1610313E-2,6.187581E-2,-2.5704017E-2,6.172895E-2,-2.6391288E-2,6.0448207E-2,1.785245E-2,-5.1997144E-2,1.4009696E-2,6.64519E-2,5.1414527E-2,-4.1302294E-2,-7.881302E-2,2.7134318E-2,-4.8521955E-2,4.5690548E-2,2.5297025E-2,-5.011275E-2],"categories":[],"categories_nodes":[],"categories_segments":[],"categories_sizes":[],"default_left":[0,0,0,0,0,0,0,0,0,0,0,0,0,0,0,0,0,0,0,0,0,0,0,0,0,0,0,0,0,0,0,0,0,0,0,0,0,0,0,0,0,0,0,0,0,0,0,0,0,0,0,0,0,0,0,0,0,0,0,0,0,0,0,0,0,0,0,0,0],"id":14,"left_children":[1,3,5,7,9,11,13,-1,15,-1,17,19,21,23,25,-1,27,-1,-1,-1,-1,-1,29,-1,31,33,35,-1,37,-1,39,-1,41,43,45,47,49,-1,51,-1,53,-1,55,-1,-1,57,59,61,63,65,67,-1,-1,-1,-1,-1,-1,-1,-1,-1,-1,-1,-1,-1,-1,-1,-1,-1,-1],"loss_changes":[6.6498764E1,1.3641796E1,3.54756E1,1.2656242E1,1.1804861E1,1.3302084E1,3.122697E1,0E0,7.996376E0,0E0,1.3141615E0,1.1210784E1,8.663761E0,1.642461E1,3.0882275E1,0E0,3.0937042E0,0E0,0E0,0E0,0E0,0E0,5.1407585E0,0E0,1.1203798E1,1.4167637E1,2.867347E1,0E0,2.5229874E0,0E0,4.529064E0,0E0,7.3841496E0,1.1353698E1,7.4881268E0,2.4336292E1,3.3969475E1,0E0,5.917053E-1,0E0,4.573147E0,0E0,4.4626045E0,0E0,0E0,2.0205724E0,5.417919E-1,1.2121323E1,1.4937873E1,1.1945641E1,2.9729752E1,0E0,0E0,0E0,0E0,0E0,0E0,0E0,0E0,0E0,0E0,0E0,0E0,0E0,0E0,0E0,0E0,0E0,0E0],"parents":[2147483647,0,0,1,1,2,2,3,3,4,4,5,5,6,6,8,8,10,10,11,11,12,12,13,13,14,14,16,16,22,22,24,24,25,25,26,26,28,28,30,30,32,32,33,33,34,34,35,35,36,36,38,38,40,40,42,42,45,45,46,46,47,47,48,48,49,49,50,50],"right_children":[2,4,6,8,10,12,14,-1,16,-1,18,20,22,24,26,-1,28,-1,-1,-1,-1,-1,30,-1,32,34,36,-1,38,-1,40,-1,42,44,46,48,50,-1,52,-1,54,-1,56,-1,-1,58,60,62,64,66,68,-1,-1,-1,-1,-1,-1,-1,-1,-1,-1,-1,-1,-1,-1,-1,-1,-1,-1],"split_conditions":[1.72E2,2.54E2,1.8E2,1E0,2.29E2,2E0,1.65E2,-5.9479564E-2,1E0,-7.586645E-2,1.83E2,2.37E2,1E0,7.9E1,1.81E2,-3.896394E-2,1E0,-6.3073994E-3,5.1672548E-2,-6.926604E-2,4.082389E-2,-5.533495E-2,1E0,-7.151842E-2,8.5E1,1.3E1,1.96E2,-8.422082E-3,1E0,-2.8099135E-2,1.8E1,-5.0603162E-2,4.8E1,2.02E2,1.75E2,2.43E2,1.66E2,8.8286394E-4,4E0,-2.8278226E-2,1E0,-3.7396844E-2,6E0,3.9704677E-2,-7.6224186E-2,1.37E2,9.5E1,2.4E2,2.49E2,2.03E2,1.54E2,1.1610313E-2,6.187581E-2,-2.5704017E-2,6.172895E-2,-2.6391288E-2,6.0448207E-2,1.785245E-2,-5.1997144E-2,1.4009696E-2,6.64519E-2,5.1414527E-2,-4.1302294E-2,-7.881302E-2,2.7134318E-2,-4.8521955E-2,4.5690548E-2,2.5297025E-2,-5.011275E-2],"split_indices":[348,1392,974,1779,1303,98,3868,0,2322,0,674,2907,3288,875,2968,0,913,0,0,0,0,0,1587,0,1078,2113,2593,0,2635,0,3472,0,82,1464,2696,673,2953,0,579,0,2884,0,3068,0,0,80,570,2135,3103,1634,1987,0,0,0,0,0,0,0,0,0,0,0,0,0,0,0,0,0,0],"split_type":[0,0,0,0,0,0,0,0,0,0,0,0,0,0,0,0,0,0,0,0,0,0,0,0,0,0,0,0,0,0,0,0,0,0,0,0,0,0,0,0,0,0,0,0,0,0,0,0,0,0,0,0,0,0,0,0,0,0,0,0,0,0,0,0,0,0,0,0,0],"sum_hessian":[3.9290018E2,7.208911E1,3.208111E2,6.48125E1,7.276604E0,4.2806904E1,2.7800418E2,1.7366091E0,6.3075893E1,3.4783802E0,3.798224E0,7.635976E0,3.517093E1,3.2713E1,2.4529118E2,1.5602888E0,6.1515606E1,1.0527585E0,2.7454655E0,4.519026E0,3.1169503E0,1.2477407E0,3.3923187E1,2.7354918E0,2.997751E1,2.5195446E1,2.2009573E2,1.4929749E0,6.0022633E1,1.400501E0,3.252269E1,2.284853E0,2.7692657E1,6.8164115E0,1.8379036E1,3.8946323E1,1.8114941E2,1.8209494E0,5.8201683E1,1.0240042E0,3.1498684E1,1.609607E0,2.608305E1,2.8404636E0,3.975948E0,2.4581404E0,1.5920895E1,2.5921146E1,1.3025175E1,1.8438728E1,1.6271068E2,1.1139538E0,5.7087727E1,1.0495645E0,3.044912E1,1.0296319E0,2.5053417E1,1.214158E0,1.2439824E0,1.1435546E0,1.477734E1,2.2546434E1,3.3747125E0,8.546225E0,4.4789505E0,3.3804266E0,1.5058302E1,1.3718025E1,1.4899266E2],"tree_param":{"num_deleted":"0","num_feature":"4096","num_nodes":"69","size_leaf_vector":"1"}},{"base_weights":[7.917218E-3,7.464178E-1,-2.0958047E-1,-8.1224346E-1,8.99701E-1,6.091659E-1,-3.5193396E-1,3.5314433E-2,-7.89348E-2,-5.9626963E-2,9.667105E-1,1.1207116E0,-7.118873E-2,5.323096E-1,-4.8479554E-1,-4.9492812E-1,1.0501431E0,-8.361566E-3,6.1708372E-2,-9.93883E-1,7.2283953E-1,-1.6848858E-1,9.448467E-1,2.737082E-1,-6.3829845E-1,-6.4700045E-2,4.059522E-2,-3.6589763E-1,1.107098E0,3.014538E-2,-1.481533E0,-2.955491E-2,1.0440271E0,9.206088E-1,-8.7151235E-1,-5.1635433E-2,1.1161531E0,-8.0287105E-1,5.73705E-1,3.9685625E-1,-7.532575E-1,3.308175E-2,-5.5821028E-2,-2.7527973E-2,1.1383678E0,-1.9464185E-2,-8.000616E-2,-4.741489E-3,5.9926003E-2,1.2980451E-2,5.0744493E-2,-1.4223406E0,4.1889668E-2,-2.8113259E-2,1.2670326E0,3.588366E-2,-7.800198E-2,-6.432193E-2,7.6504225E-1,-9.6818537E-1,9.513028E-1,3.718036E-1,-8.673403E-1,-9.6910065E-3,5.897507E-2,-2.1620555E-2,-7.594815E-2,1.5027507E-2,6.551975E-2,-5.5998158E-2,4.555568E-2,3.4971688E-2,-7.407933E-2,-2.7043048E-2,5.7735503E-2,-6.170094E-2,4.173578E-2,2.7211884E-2,-4.9751002E-2],"categories":[],"categories_nodes":[],"categories_segments":[],"categories_sizes":[],"default_left":[0,0,0,0,0,0,0,0,0,0,0,0,0,0,0,0,0,0,0,0,0,0,0,0,0,0,0,0,0,0,0,0,0,0,0,0,0,0,0,0,0,0,0,0,0,0,0,0,0,0,0,0,0,0,0,0,0,0,0,0,0,0,0,0,0,0,0,0,0,0,0,0,0,0,0,0,0,0,0],"id":15,"left_children":[1,3,5,7,9,11,13,-1,-1,-1,15,17,19,21,23,25,27,-1,-1,29,31,33,35,37,39,-1,-1,41,43,-1,45,-1,47,49,51,-1,53,55,57,59,61,-1,-1,-1,63,-1,-1,-1,-1,-1,-1,65,-1,-1,67,-1,-1,-1,69,71,73,75,77,-1,-1,-1,-1,-1,-1,-1,-1,-1,-1,-1,-1,-1,-1,-1,-1],"loss_changes":[6.264061E1,2.192818E1,3.53302E1,1.0972615E1,1.2544579E1,1.5738407E1,3.0486E1,0E0,0E0,0E0,1.0188309E1,3.9678993E0,1.5554559E1,1.0013875E1,2.6280235E1,6.231102E0,6.4799423E0,0E0,0E0,8.514313E0,5.454679E0,1.1122864E1,8.472609E0,1.2874847E1,2.2525108E1,0E0,0E0,3.5643277E0,4.3929977E0,0E0,3.857212E-1,0E0,1.7979298E0,9.636068E-2,9.387897E0,0E0,5.869772E0,1.1243605E1,1.189091E1,1.55461445E1,2.194307E1,0E0,0E0,0E0,4.1543045E0,0E0,0E0,0E0,0E0,0E0,0E0,8.358955E-3,0E0,0E0,4.021492E-1,0E0,0E0,0E0,8.843849E0,6.239412E0,4.948599E0,1.3078677E1,2.816027E1,0E0,0E0,0E0,0E0,0E0,0E0,0E0,0E0,0E0,0E0,0E0,0E0,0E0,0E0,0E0,0E0],"parents":[2147483647,0,0,1,1,2,2,3,3,4,4,5,5,6,6,10,10,11,11,12,12,13,13,14,14,15,15,16,16,19,19,20,20,21,21,22,22,23,23,24,24,27,27,28,28,30,30,32,32,33,33,34,34,36,36,37,37,38,38,39,39,40,40,44,44,51,51,54,54,58,58,59,59,60,60,61,61,62,62],"right_children":[2,4,6,8,10,12,14,-1,-1,-1,16,18,20,22,24,26,28,-1,-1,30,32,34,36,38,40,-1,-1,42,44,-1,46,-1,48,50,52,-1,54,56,58,60,62,-1,-1,-1,64,-1,-1,-1,-1,-1,-1,66,-1,-1,68,-1,-1,-1,70,72,74,76,78,-1,-1,-1,-1,-1,-1,-1,-1,-1,-1,-1,-1,-1,-1,-1,-1],"split_conditions":[1.98E2,1E0,1.81E2,1.91E2,3E0,2.05E2,1.64E2,3.5314433E-2,-7.89348E-2,-5.9626963E-2,2E0,1.3E1,2.26E2,2.17E2,1.86E2,2.49E2,1E0,-8.361566E-3,6.1708372E-2,1.86E2,2.07E2,2.05E2,1.23E2,1.97E2,1.66E2,-6.4700045E-2,4.059522E-2,2.32E2,3E0,3.014538E-2,1.64E2,-2.955491E-2,3.2E1,1.96E2,2.19E2,-5.1635433E-2,1.19E2,1.9E2,1.53E2,9.2E1,1.73E2,3.308175E-2,-5.5821028E-2,-2.7527973E-2,1E0,-1.9464185E-2,-8.000616E-2,-4.741489E-3,5.9926003E-2,1.2980451E-2,5.0744493E-2,1.93E2,4.1889668E-2,-2.8113259E-2,1.39E2,3.588366E-2,-7.800198E-2,-6.432193E-2,9.4E1,2.1E1,1.79E2,2.07E2,2.03E2,-9.6910065E-3,5.897507E-2,-2.1620555E-2,-7.594815E-2,1.5027507E-2,6.551975E-2,-5.5998158E-2,4.555568E-2,3.4971688E-2,-7.407933E-2,-2.7043048E-2,5.7735503E-2,-6.170094E-2,4.173578E-2,2.7211884E-2,-4.9751002E-2],"split_indices":[2146,3989,3121,610,1440,3185,3576,0,0,0,1730,2071,2244,2340,3086,63,3367,0,0,3216,3357,1943,1963,2986,974,0,0,55,3148,0,3387,0,2189,1493,2161,0,1706,1138,3653,2494,3805,0,0,0,2522,0,0,0,0,0,0,1390,0,0,2425,0,0,0,1779,174,3229,3040,4039,0,0,0,0,0,0,0,0,0,0,0,0,0,0,0,0],"split_type":[0,0,0,0,0,0,0,0,0,0,0,0,0,0,0,0,0,0,0,0,0,0,0,0,0,0,0,0,0,0,0,0,0,0,0,0,0,0,0,0,0,0,0,0,0,0,0,0,0,0,0,0,0,0,0,0,0,0,0,0,0,0,0,0,0,0,0,0,0,0,0,0,0,0,0,0,0,0,0],"sum_hessian":[3.8801337E2,8.772306E1,3.002903E2,7.4695826E0,8.025347E1,4.399185E1,2.5629846E2,2.5318527E0,4.93773E0,1.9693022E0,7.828417E1,2.4741755E1,1.92501E1,3.308682E1,2.2321165E2,3.9609537E0,7.432322E1,1.9646969E0,2.2777058E1,8.787249E0,1.046285E1,1.2479251E1,2.0607569E1,3.74377E1,1.8577396E2,2.4640875E0,1.4968663E0,2.6640472E0,7.165917E1,2.000462E0,6.7867866E0,1.8901469E0,8.572703E0,4.774021E0,7.7052298E0,1.2419626E0,1.9365606E1,7.793479E0,2.9644218E1,1.8323841E1,1.6745012E2,1.1744943E0,1.489553E0,1.019271E0,7.06399E1,1.0841404E0,5.7026463E0,1.0701554E0,7.5025477E0,1.0644909E0,3.7095306E0,5.9543185E0,1.750911E0,1.3723776E0,1.7993229E1,2.6080866E0,5.185392E0,2.2310426E0,2.7413176E1,5.077318E0,1.3246523E1,1.5208449E1,1.5224167E2,2.0046191E0,6.8635284E1,1.0163836E0,4.937935E0,1.1131837E0,1.6880045E1,1.4920105E0,2.5921165E1,1.1098788E0,3.9674394E0,1.3900836E0,1.185644E1,3.0303874E0,1.2178062E1,1.23576565E1,1.39884E2],"tree_param":{"num_deleted":"0","num_feature":"4096","num_nodes":"79","size_leaf_vector":"1"}},{"base_weights":[7.2853067E-3,7.744596E-1,-1.9485973E-1,-6.645532E-2,8.782299E-1,6.04355E-1,-3.3430928E-1,1.0374084E0,5.7938617E-2,-7.005894E-1,7.571756E-1,4.2114794E-1,-4.6846628E-1,1.1092275E0,-2.537619E-1,-6.6504896E-2,8.297178E-1,3.652665E-2,-6.8359196E-2,-5.5794563E-2,8.662152E-1,-1.1159632E0,6.8740624E-1,4.0422007E-1,-6.196345E-1,-3.0037245E-2,1.1551784E0,3.7092216E-2,-5.4236677E-2,-2.8103724E-2,5.653883E-2,-5.012069E-2,9.5247126E-1,1.718206E-2,-7.376269E-2,-7.970551E-1,9.16812E-1,-6.85713E-2,6.5489817E-1,3.6898682E-1,-7.612056E-1,-1.9129846E-2,1.1899748E0,-3.2404255E-2,1.0560687E0,3.7728794E-2,-7.227271E-2,-3.8927503E-2,1.0352228E0,-8.73552E-1,9.0874225E-1,-4.3051702E-1,9.5323455E-1,-9.830822E-1,-9.016435E-2,-3.3056948E-3,6.0803723E-2,4.210275E-2,-5.6098737E-2,-2.3062553E-2,5.5986702E-2,-3.1971026E-2,5.6993794E-2,1.7071597E-2,-6.547237E-2,5.767134E-2,-1.6844321E-2,3.620909E-2,-6.0933348E-2,6.0752477E-2,-5.0686806E-2,3.8888082E-2,-5.430044E-2,3.6019456E-2,-2.5169302E-2],"categories":[],"categories_nodes":[],"categories_segments":[],"categories_sizes":[],"default_left":[0,0,0,0,0,0,0,0,0,0,0,0,0,0,0,0,0,0,0,0,0,0,0,0,0,0,0,0,0,0,0,0,0,0,0,0,0,0,0,0,0,0,0,0,0,0,0,0,0,0,0,0,0,0,0,0,0,0,0,0,0,0,0,0,0,0,0,0,0,0,0,0,0,0,0],"id":16,"left_children":[1,3,5,-1,7,9,11,13,15,17,19,21,23,25,27,-1,29,-1,-1,-1,31,33,35,37,39,-1,41,-1,-1,-1,-1,-1,43,-1,-1,45,47,-1,49,51,53,-1,55,57,59,-1,-1,-1,61,63,65,67,69,71,73,-1,-1,-1,-1,-1,-1,-1,-1,-1,-1,-1,-1,-1,-1,-1,-1,-1,-1,-1,-1],"loss_changes":[5.9663685E1,1.8680569E1,3.4141254E1,0E0,1.0001915E1,9.623478E0,2.654087E1,6.260582E0,1.5654154E1,6.0542955E0,9.401106E0,1.702512E1,2.9432034E1,5.507988E0,4.288818E0,0E0,4.551217E0,0E0,0E0,0E0,7.335655E0,3.7826571E0,1.2472103E1,1.570487E1,2.672464E1,0E0,3.6661224E0,0E0,0E0,0E0,0E0,0E0,3.947548E0,0E0,0E0,6.2719383E0,6.894348E0,0E0,1.2366153E1,1.177998E1,2.4566849E1,0E0,2.0120392E0,5.347283E0,3.8717842E0,0E0,0E0,0E0,5.772318E0,2.966911E0,8.333908E0,1.0862316E1,8.6343565E0,2.3381165E1,1.4513567E1,0E0,0E0,0E0,0E0,0E0,0E0,0E0,0E0,0E0,0E0,0E0,0E0,0E0,0E0,0E0,0E0,0E0,0E0,0E0,0E0],"parents":[2147483647,0,0,1,1,2,2,4,4,5,5,6,6,7,7,8,8,9,9,10,10,11,11,12,12,13,13,14,14,16,16,20,20,21,21,22,22,23,23,24,24,26,26,32,32,35,35,36,36,38,38,39,39,40,40,42,42,43,43,44,44,48,48,49,49,50,50,51,51,52,52,53,53,54,54],"right_children":[2,4,6,-1,8,10,12,14,16,18,20,22,24,26,28,-1,30,-1,-1,-1,32,34,36,38,40,-1,42,-1,-1,-1,-1,-1,44,-1,-1,46,48,-1,50,52,54,-1,56,58,60,-1,-1,-1,62,64,66,68,70,72,74,-1,-1,-1,-1,-1,-1,-1,-1,-1,-1,-1,-1,-1,-1,-1,-1,-1,-1,-1,-1],"split_conditions":[1.95E2,1E0,1.79E2,-6.645532E-2,2.47E2,1E0,1.74E2,2.53E2,1.93E2,2.04E2,1E0,1.7E2,1.7E2,1E0,2.16E2,-6.6504896E-2,2.21E2,3.652665E-2,-6.8359196E-2,-5.5794563E-2,1E0,1.87E2,1E0,1.7E1,1.74E2,-3.0037245E-2,1E0,3.7092216E-2,-5.4236677E-2,-2.8103724E-2,5.653883E-2,-5.012069E-2,1E0,1.718206E-2,-7.376269E-2,1.65E2,1.57E2,-6.85713E-2,1.61E2,2.17E2,2.54E2,-1.9129846E-2,1E0,1.76E2,1E0,3.7728794E-2,-7.227271E-2,-3.8927503E-2,1.57E2,1.5E2,2.53E2,2.06E2,2.52E2,5.9E1,2.07E2,-3.3056948E-3,6.0803723E-2,4.210275E-2,-5.6098737E-2,-2.3062553E-2,5.5986702E-2,-3.1971026E-2,5.6993794E-2,1.7071597E-2,-6.547237E-2,5.767134E-2,-1.6844321E-2,3.620909E-2,-6.0933348E-2,6.0752477E-2,-5.0686806E-2,3.8888082E-2,-5.430044E-2,3.6019456E-2,-2.5169302E-2],"split_indices":[1889,2006,3151,0,2802,2940,3502,3976,645,1688,648,305,2364,85,160,0,3056,0,0,0,2006,225,1981,1293,593,0,2353,0,0,0,0,0,2301,0,0,585,507,0,1844,2214,2128,0,527,409,1519,0,0,0,1439,144,406,2152,3921,2160,2821,0,0,0,0,0,0,0,0,0,0,0,0,0,0,0,0,0,0,0,0],"split_type":[0,0,0,0,0,0,0,0,0,0,0,0,0,0,0,0,0,0,0,0,0,0,0,0,0,0,0,0,0,0,0,0,0,0,0,0,0,0,0,0,0,0,0,0,0,0,0,0,0,0,0,0,0,0,0,0,0,0,0,0,0,0,0,0,0,0,0,0,0,0,0,0,0,0,0],"sum_hessian":[3.8275415E2,7.923038E1,3.0352377E2,3.169625E0,7.606075E1,4.459672E1,2.5892703E2,6.3478077E1,1.2582676E1,4.29941E0,4.029731E1,3.8724525E1,2.2020251E2,6.0266754E1,3.2113237E0,4.2377357E0,8.34494E0,1.3357496E0,2.9636602E0,1.708865E0,3.8588444E1,5.246302E0,3.347822E1,3.2264904E1,1.8793762E2,1.2611672E0,5.9005585E1,1.5097338E0,1.70159E0,1.3298875E0,7.0150523E0,1.2340003E0,3.7354446E1,1.0449184E0,4.2013836E0,4.1499414E0,2.932828E1,3.4384208E0,2.8826483E1,2.3340385E1,1.6459723E2,1.0844537E0,5.792113E1,3.6206841E0,3.373376E1,1.1748211E0,2.9751205E0,1.5507158E0,2.7777565E1,3.7579231E0,2.506856E1,9.965878E0,1.3374508E1,1.23347855E2,4.124938E1,1.1478094E0,5.6773323E1,2.1346447E0,1.4860393E0,1.1069607E0,3.26268E1,1.3332459E0,2.6444319E1,1.0494556E0,2.7084672E0,2.1014587E1,4.053972E0,4.0757537E0,5.890124E0,1.2140776E1,1.2337323E0,6.449794E0,1.1689806E2,1.3677325E1,2.7572054E1],"tree_param":{"num_deleted":"0","num_feature":"4096","num_nodes":"75","size_leaf_vector":"1"}},{"base_weights":[6.269814E-3,7.5438696E-1,-1.9107431E-1,1.020078E0,7.649917E-2,7.6760876E-1,-3.3428434E-1,-3.1789638E-2,1.0800359E0,5.7309516E-2,-5.1161295E-1,-5.632135E-2,8.7191916E-1,5.5303276E-1,-4.657568E-1,-3.0083525E-1,1.1543922E0,4.8672315E-2,-9.676032E-1,1.0774071E0,-7.751784E-2,-4.4115E-1,8.404519E-1,3.7626585E-1,-6.241608E-1,-5.5770814E-2,3.875331E-2,-2.2612173E-2,1.1951677E0,4.271355E-2,-1.3088652E0,-2.6810775E-2,1.1490406E0,-5.8392998E-2,4.536117E-2,4.5185756E-2,-1.1857274E0,-5.6767236E-2,1.0205545E0,-8.9087903E-1,7.858983E-1,7.1312124E-1,-7.0922095E-1,-1.7172577E-3,1.2227398E0,3.5887312E-2,-8.087086E-2,-3.2370638E-3,1.2211152E0,-5.8784964E-4,-7.30147E-2,-3.010397E-2,1.1315082E0,4.526813E-2,-7.6339565E-2,-7.307065E-1,1.0277451E0,-5.7079554E-2,5.9253633E-2,3.9579773E-1,-8.1438595E-1,1.1378766E-2,6.1917026E-2,1.1323077E-2,6.248319E-2,-1.8209651E-2,6.108255E-2,3.2415718E-2,-6.5853655E-2,-4.8193023E-2,5.8569994E-2,-5.412195E-2,4.0493127E-2,7.406098E-3,-4.7048636E-2],"categories":[],"categories_nodes":[],"categories_segments":[],"categories_sizes":[],"default_left":[0,0,0,0,0,0,0,0,0,0,0,0,0,0,0,0,0,0,0,0,0,0,0,0,0,0,0,0,0,0,0,0,0,0,0,0,0,0,0,0,0,0,0,0,0,0,0,0,0,0,0,0,0,0,0,0,0,0,0,0,0,0,0,0,0,0,0,0,0,0,0,0,0,0,0],"id":17,"left_children":[1,3,5,7,9,11,13,-1,15,-1,17,-1,19,21,23,25,27,-1,29,31,33,35,37,39,41,-1,-1,-1,43,-1,45,-1,47,-1,-1,-1,49,-1,51,53,55,57,59,-1,61,-1,-1,-1,63,-1,-1,-1,65,-1,-1,67,69,-1,-1,71,73,-1,-1,-1,-1,-1,-1,-1,-1,-1,-1,-1,-1,-1,-1],"loss_changes":[5.5971054E1,1.417395E1,4.144555E1,6.322727E0,1.5283602E1,8.7454815E0,3.0788445E1,0E0,6.010353E0,0E0,1.1618101E1,0E0,7.459606E0,1.0152075E1,3.0709782E1,4.029625E0,3.982666E0,0E0,8.929399E0,4.2164497E0,9.283704E0,9.415396E0,1.07302685E1,1.9802197E1,2.2423157E1,0E0,0E0,0E0,1.7884369E0,0E0,8.024658E0,0E0,2.7159386E0,0E0,0E0,0E0,1.8509874E0,0E0,5.2141743E0,1.2186957E1,1.1146391E1,1.1875724E1,2.1432884E1,0E0,5.008774E-1,0E0,0E0,0E0,5.2635956E-1,0E0,0E0,0E0,3.669098E0,0E0,0E0,4.478426E0,8.241453E0,0E0,0E0,1.0951066E1,2.0389404E1,0E0,0E0,0E0,0E0,0E0,0E0,0E0,0E0,0E0,0E0,0E0,0E0,0E0,0E0],"parents":[2147483647,0,0,1,1,2,2,3,3,4,4,5,5,6,6,8,8,10,10,12,12,13,13,14,14,15,15,16,16,18,18,19,19,20,20,21,21,22,22,23,23,24,24,28,28,30,30,32,32,36,36,38,38,39,39,40,40,41,41,42,42,44,44,48,48,52,52,55,55,56,56,59,59,60,60],"right_children":[2,4,6,8,10,12,14,-1,16,-1,18,-1,20,22,24,26,28,-1,30,32,34,36,38,40,42,-1,-1,-1,44,-1,46,-1,48,-1,-1,-1,50,-1,52,54,56,58,60,-1,62,-1,-1,-1,64,-1,-1,-1,66,-1,-1,68,70,-1,-1,72,74,-1,-1,-1,-1,-1,-1,-1,-1,-1,-1,-1,-1,-1,-1],"split_conditions":[1.8E2,2.21E2,1.64E2,1E0,1.88E2,1E0,1.79E2,-3.1789638E-2,1E0,5.7309516E-2,1.78E2,-5.632135E-2,2.47E2,1.89E2,1.7E2,2.4E2,8E0,4.8672315E-2,1.72E2,1E0,2.54E2,1.71E2,3.4E1,4.4E1,1.59E2,-5.5770814E-2,3.875331E-2,-2.2612173E-2,1E1,4.271355E-2,1.83E2,-2.6810775E-2,1E0,-5.8392998E-2,4.536117E-2,4.5185756E-2,2.03E2,-5.6767236E-2,1E0,1.63E2,2.3E1,1.18E2,1.69E2,-1.7172577E-3,9E0,3.5887312E-2,-8.087086E-2,-3.2370638E-3,4.8E1,-5.8784964E-4,-7.30147E-2,-3.010397E-2,4.3E1,4.526813E-2,-7.6339565E-2,1.74E2,4.3E1,-5.7079554E-2,5.9253633E-2,1.93E2,1.95E2,1.1378766E-2,6.1917026E-2,1.1323077E-2,6.248319E-2,-1.8209651E-2,6.108255E-2,3.2415718E-2,-6.5853655E-2,-4.8193023E-2,5.8569994E-2,-5.412195E-2,4.0493127E-2,7.406098E-3,-4.7048636E-2],"split_indices":[684,3055,1097,2522,2739,2329,974,0,237,0,1117,0,2960,3355,589,145,1488,0,2823,1636,3803,1403,2060,2049,911,0,0,0,1260,0,1760,0,237,0,0,0,1502,0,1341,2542,275,2497,2759,0,825,0,0,0,2553,0,0,0,2004,0,0,294,3638,0,0,2766,1885,0,0,0,0,0,0,0,0,0,0,0,0,0,0],"split_type":[0,0,0,0,0,0,0,0,0,0,0,0,0,0,0,0,0,0,0,0,0,0,0,0,0,0,0,0,0,0,0,0,0,0,0,0,0,0,0,0,0,0,0,0,0,0,0,0,0,0,0,0,0,0,0,0,0,0,0,0,0,0,0,0,0,0,0,0,0,0,0,0,0,0,0],"sum_hessian":[3.7713754E2,7.8129944E1,2.990076E2,5.5767624E1,2.2362318E1,3.829454E1,2.6071307E2,1.6131456E0,5.4154476E1,7.596482E0,1.4765836E1,1.4874318E0,3.680711E1,3.323064E1,2.2748242E2,2.6114469E0,5.154303E1,3.202196E0,1.1563641E1,3.0147467E1,6.6596417E0,7.332536E0,2.5898106E1,3.5800987E1,1.9168143E2,1.4653109E0,1.146136E0,1.0259854E0,5.0517044E1,1.5871501E0,9.97649E0,1.0057732E0,2.9141693E1,3.07212E0,3.587522E0,2.5368023E0,4.795734E0,1.7204301E0,2.4177675E1,8.4590845E0,2.7341904E1,1.1021528E1,1.806599E2,1.1026227E0,4.941442E1,1.1429915E0,8.833499E0,1.6391484E0,2.7502544E1,1.1066835E0,3.6890504E0,1.2641276E0,2.2913548E1,2.1009297E0,6.358155E0,3.4824338E0,2.385947E1,1.9478477E0,9.07368E0,1.5459196E1,1.6520071E2,1.0032746E0,4.8411148E1,1.0165832E0,2.6485962E1,1.1296439E0,2.1783903E1,1.0074528E0,2.474981E0,1.2210783E0,2.2638391E1,3.0295038E0,1.2429692E1,1.9181698E1,1.4601901E2],"tree_param":{"num_deleted":"0","num_feature":"4096","num_nodes":"75","size_leaf_vector":"1"}},{"base_weights":[6.1696777E-3,1.092468E0,-1.23469226E-1,-3.2984886E-2,5.8280688E-2,8.588404E-1,-2.2397532E-1,-5.4462403E-2,1.007653E0,5.4002637E-1,-3.479008E-1,-2.841386E-2,1.1295896E0,-8.173106E-1,7.346688E-1,4.113823E-1,-4.6832123E-1,5.180499E-4,6.0353644E-2,3.3652905E-2,-6.743941E-2,-5.036394E-2,9.0062535E-1,6.753503E-1,-6.2323904E-1,3.9469886E-1,-5.9759957E-1,-3.6724576E-1,1.0082272E0,-2.459997E-1,9.9700487E-1,3.6166336E-2,-1.258584E0,-1.1246227E0,6.550352E-1,4.1226584E-1,-7.111094E-1,3.2303214E-2,-5.227656E-2,-2.486024E-2,5.362944E-2,4.9223162E-2,-6.0740154E-2,-3.3864316E-2,5.7834953E-2,-1.6472625E-2,-7.001413E-2,-1.6159697E-2,-6.364815E-2,-1.3351555E-2,5.358398E-2,-6.439797E-2,3.828772E-2,2.5610972E-2,-4.135288E-2],"categories":[],"categories_nodes":[],"categories_segments":[],"categories_sizes":[],"default_left":[0,0,0,0,0,0,0,0,0,0,0,0,0,0,0,0,0,0,0,0,0,0,0,0,0,0,0,0,0,0,0,0,0,0,0,0,0,0,0,0,0,0,0,0,0,0,0,0,0,0,0,0,0,0,0],"id":18,"left_children":[1,3,5,-1,-1,7,9,-1,11,13,15,-1,17,19,21,23,25,-1,-1,-1,-1,-1,27,29,31,33,35,37,39,41,43,-1,45,47,49,51,53,-1,-1,-1,-1,-1,-1,-1,-1,-1,-1,-1,-1,-1,-1,-1,-1,-1,-1],"loss_changes":[5.2627876E1,5.8753357E0,3.3158314E1,0E0,0E0,1.0142401E1,2.8942612E1,0E0,6.3117123E0,1.1902547E1,2.4141527E1,0E0,2.3914833E0,5.5325274E0,1.187538E1,1.03584385E1,2.5510948E1,0E0,0E0,0E0,0E0,0E0,5.1681366E0,8.97901E0,7.683243E0,1.2648716E1,2.2923828E1,3.0702157E0,3.700142E0,1.1242996E1,6.676943E0,0E0,2.9486752E-1,1.560936E-1,1.0406345E1,1.3355919E1,2.5649323E1,0E0,0E0,0E0,0E0,0E0,0E0,0E0,0E0,0E0,0E0,0E0,0E0,0E0,0E0,0E0,0E0,0E0,0E0],"parents":[2147483647,0,0,1,1,2,2,5,5,6,6,8,8,9,9,10,10,12,12,13,13,14,14,15,15,16,16,22,22,23,23,24,24,25,25,26,26,27,27,28,28,29,29,30,30,32,32,33,33,34,34,35,35,36,36],"right_children":[2,4,6,-1,-1,8,10,-1,12,14,16,-1,18,20,22,24,26,-1,-1,-1,-1,-1,28,30,32,34,36,38,40,42,44,-1,46,48,50,52,54,-1,-1,-1,-1,-1,-1,-1,-1,-1,-1,-1,-1,-1,-1,-1,-1,-1,-1],"split_conditions":[1.49E2,1.2E1,1.68E2,-3.2984886E-2,5.8280688E-2,1E0,1.79E2,-5.4462403E-2,2E0,5.8E1,1.76E2,-2.841386E-2,1E0,9.5E1,6E1,2.36E2,1.74E2,5.180499E-4,6.0353644E-2,3.3652905E-2,-6.743941E-2,-5.036394E-2,1E0,1.87E2,1.86E2,1.89E2,7E1,2.08E2,6E0,1.92E2,1.09E2,3.6166336E-2,9.7E1,2.14E2,1.73E2,1.75E2,8.1E1,3.2303214E-2,-5.227656E-2,-2.486024E-2,5.362944E-2,4.9223162E-2,-6.0740154E-2,-3.3864316E-2,5.7834953E-2,-1.6472625E-2,-7.001413E-2,-1.6159697E-2,-6.364815E-2,-1.3351555E-2,5.358398E-2,-6.439797E-2,3.828772E-2,2.5610972E-2,-4.135288E-2],"split_indices":[378,929,2205,0,0,333,974,0,3195,3289,1142,0,547,154,435,3643,3476,0,0,0,0,0,3152,3537,2771,1134,2885,38,2807,678,2391,0,2328,1249,165,823,2759,0,0,0,0,0,0,0,0,0,0,0,0,0,0,0,0,0,0],"split_type":[0,0,0,0,0,0,0,0,0,0,0,0,0,0,0,0,0,0,0,0,0,0,0,0,0,0,0,0,0,0,0,0,0,0,0,0,0,0,0,0,0,0,0,0,0,0,0,0,0,0,0,0,0,0,0],"sum_hessian":[3.717493E2,3.8842747E1,3.3290652E2,1.2352016E0,3.7607544E1,3.0199781E1,3.0270676E2,1.694725E0,2.8505056E1,4.177931E1,2.6092746E2,1.7842795E0,2.6720778E1,4.8385673E0,3.694074E1,3.5386963E1,2.255405E2,1.8034897E0,2.4917288E1,1.2018765E0,3.6366909E0,2.7722754E0,3.4168465E1,2.8470413E1,6.916548E0,2.9116323E1,1.9642416E2,2.4841971E0,3.1684267E1,7.4282055E0,2.1042208E1,2.1728592E0,4.7436886E0,3.7736192E0,2.5342705E1,1.9581446E1,1.7684271E2,1.0151457E0,1.4690515E0,1.023324E0,3.0660942E1,3.265094E0,4.1631117E0,1.5500262E0,1.9492182E1,1.0676992E0,3.6759896E0,1.0858575E0,2.6877618E0,7.9991217E0,1.7343584E1,2.9153752E0,1.666607E1,1.5014307E1,1.6182841E2],"tree_param":{"num_deleted":"0","num_feature":"4096","num_nodes":"55","size_leaf_vector":"1"}},{"base_weights":[5.758439E-3,8.0616146E-1,-1.6444123E-1,-5.799194E-2,8.7852776E-1,6.124896E-1,-3.0165136E-1,-5.4758765E-2,9.5107347E-1,-3.7638435E-1,9.18114E-1,-8.0364954E-1,-8.202139E-2,-9.969948E-2,1.0778733E0,-1.1292658E0,4.3897614E-2,1.1321741E0,-1.7023295E-1,4.0688843E-1,-1.021253E0,-6.976385E-1,1.9290207E-1,4.7478817E-2,-5.726499E-2,-2.8152928E-2,1.1410314E0,1.7816203E-2,-7.198887E-2,-1.705112E-2,1.199282E0,-6.235307E-2,4.86103E-2,-5.6390043E-2,8.252026E-1,2.612615E-1,-1.2126433E0,7.052551E-1,-9.6582705E-1,-1.0902399E0,3.2515216E-1,-1.17593E-2,1.1810418E0,1.3793285E-2,6.1143436E-2,-3.2631077E-2,5.7389207E-2,-5.89144E-2,8.483856E-1,4.539988E-2,-1.3213317E0,1.0587785E0,-4.758725E-2,4.9216655E-1,-1.1815468E0,3.8646277E-2,-1.4780214E0,-4.7312102E-1,5.608235E-1,-4.605889E-3,6.0451537E-2,-2.1019354E-2,5.58466E-2,4.365439E-2,-7.10315E-2,1.4264655E-2,5.6946278E-2,-3.9637543E-2,5.3677805E-2,3.7331577E-2,-6.667053E-2,-1.8371513E-2,-7.806247E-2,5.012343E-2,-4.2288534E-2,-3.5347275E-2,3.386237E-2],"categories":[],"categories_nodes":[],"categories_segments":[],"categories_sizes":[],"default_left":[0,0,0,0,0,0,0,0,0,0,0,0,0,0,0,0,0,0,0,0,0,0,0,0,0,0,0,0,0,0,0,0,0,0,0,0,0,0,0,0,0,0,0,0,0,0,0,0,0,0,0,0,0,0,0,0,0,0,0,0,0,0,0,0,0,0,0,0,0,0,0,0,0,0,0,0,0],"id":19,"left_children":[1,3,5,-1,7,9,11,-1,13,15,17,19,21,23,25,27,-1,29,31,33,35,37,39,-1,-1,-1,41,-1,-1,-1,43,-1,-1,-1,45,47,49,51,53,55,57,-1,59,-1,-1,-1,-1,-1,61,-1,63,65,-1,67,69,-1,71,73,75,-1,-1,-1,-1,-1,-1,-1,-1,-1,-1,-1,-1,-1,-1,-1,-1,-1,-1],"loss_changes":[5.0265743E1,1.0224155E1,3.2624733E1,0E0,1.0058353E1,1.4249582E1,2.852306E1,0E0,8.271748E0,1.191866E1,8.448019E0,2.1174286E1,3.0852304E1,9.330753E0,6.317951E0,4.0503283E0,0E0,3.3493156E0,9.446508E0,9.098324E0,1.6783073E1,2.1843576E1,2.1778337E1,0E0,0E0,0E0,3.1995926E0,0E0,0E0,0E0,2.8702927E-1,0E0,0E0,0E0,5.790362E0,9.057424E0,1.4694763E1,6.6341567E0,1.55658455E1,9.831221E0,2.1942184E1,0E0,1.9547424E0,0E0,0E0,0E0,0E0,0E0,2.9749422E0,0E0,1.3465134E1,1.9515419E-1,0E0,5.965579E0,1.3234222E1,0E0,3.7818527E-1,1.5587663E1,1.3676609E1,0E0,0E0,0E0,0E0,0E0,0E0,0E0,0E0,0E0,0E0,0E0,0E0,0E0,0E0,0E0,0E0,0E0,0E0],"parents":[2147483647,0,0,1,1,2,2,4,4,5,5,6,6,8,8,9,9,10,10,11,11,12,12,13,13,14,14,15,15,17,17,18,18,19,19,20,20,21,21,22,22,26,26,30,30,34,34,35,35,36,36,37,37,38,38,39,39,40,40,42,42,48,48,50,50,51,51,53,53,54,54,56,56,57,57,58,58],"right_children":[2,4,6,-1,8,10,12,-1,14,16,18,20,22,24,26,28,-1,30,32,34,36,38,40,-1,-1,-1,42,-1,-1,-1,44,-1,-1,-1,46,48,50,52,54,56,58,-1,60,-1,-1,-1,-1,-1,62,-1,64,66,-1,68,70,-1,72,74,76,-1,-1,-1,-1,-1,-1,-1,-1,-1,-1,-1,-1,-1,-1,-1,-1,-1,-1],"split_conditions":[1.71E2,1E0,1.63E2,-5.799194E-2,1E0,1E0,2E0,-5.4758765E-2,1E0,2.32E2,2.55E2,1.48E2,3E0,2E2,2E0,2.02E2,4.3897614E-2,1E0,2.16E2,6E0,1.81E2,1.69E2,7.7E1,4.7478817E-2,-5.726499E-2,-2.8152928E-2,1E0,1.7816203E-2,-7.198887E-2,-1.705112E-2,4.2E1,-6.235307E-2,4.86103E-2,-5.6390043E-2,1.97E2,2E0,1E0,2.51E2,1.88E2,1.63E2,9.7E1,-1.17593E-2,9E0,1.3793285E-2,6.1143436E-2,-3.2631077E-2,5.7389207E-2,-5.89144E-2,1.75E2,4.539988E-2,1.54E2,1.34E2,-4.758725E-2,2.29E2,1E0,3.8646277E-2,1.57E2,1.8E2,2E0,-4.605889E-3,6.0451537E-2,-2.1019354E-2,5.58466E-2,4.365439E-2,-7.10315E-2,1.4264655E-2,5.6946278E-2,-3.9637543E-2,5.3677805E-2,3.7331577E-2,-6.667053E-2,-1.8371513E-2,-7.806247E-2,5.012343E-2,-4.2288534E-2,-3.5347275E-2,3.386237E-2],"split_indices":[3436,2791,3576,0,628,4000,1985,0,155,2340,1943,3000,2046,2270,2948,2771,0,3825,1699,2046,2023,589,1984,0,0,0,101,0,0,0,1313,0,0,0,2368,1729,3785,636,1302,974,2558,0,2923,0,0,0,0,0,214,0,2170,75,0,3347,1037,0,2939,1162,3927,0,0,0,0,0,0,0,0,0,0,0,0,0,0,0,0,0,0],"split_type":[0,0,0,0,0,0,0,0,0,0,0,0,0,0,0,0,0,0,0,0,0,0,0,0,0,0,0,0,0,0,0,0,0,0,0,0,0,0,0,0,0,0,0,0,0,0,0,0,0,0,0,0,0,0,0,0,0,0,0,0,0,0,0,0,0,0,0,0,0,0,0,0,0,0,0,0,0],"sum_hessian":[3.6700848E2,6.370141E1,3.0330707E2,1.728031E0,6.1973377E1,4.500567E1,2.583014E2,1.6973858E0,6.027599E1,1.0570947E1,3.4434723E1,7.7805595E1,1.804958E2,6.5134726E0,5.376252E1,6.668232E0,3.9027145E0,2.8741472E1,5.6932497E0,1.1722565E1,6.608303E1,5.5247135E1,1.25248665E2,3.2968597E0,3.2166128E0,1.6992273E0,5.206329E1,1.1273032E0,5.540929E0,1.0743752E0,2.7667097E1,2.8836398E0,2.80961E0,2.1475785E0,9.5749855E0,8.533645E0,5.7549385E1,8.604952E0,4.6642185E1,1.102603E1,1.1422263E2,1.3330488E0,5.0730244E1,1.0053029E0,2.6661793E1,1.5322509E0,8.042735E0,2.1804914E0,6.3531528E0,2.4472134E0,5.5102173E1,7.3894324E0,1.2155199E0,5.846399E0,4.0795784E1,1.7284048E0,9.297626E0,2.5805593E1,8.841704E1,1.0419667E0,4.9688274E1,1.0110302E0,5.3421226E0,2.0481024E0,5.305407E1,1.1218888E0,6.2675433E0,1.7080114E0,4.138387E0,2.692556E0,3.810323E1,1.0256838E0,8.271941E0,4.8622637E0,2.094333E1,7.010104E0,8.140694E1],"tree_param":{"num_deleted":"0","num_feature":"4096","num_nodes":"77","size_leaf_vector":"1"}},{"base_weights":[5.4128338E-3,6.6153145E-1,-1.949911E-1,5.9195247E-2,3.2482666E-1,9.073669E-1,-2.9133528E-1,-6.8057626E-1,5.663811E-1,1.0864716E0,-2.7779574E-2,4.329012E-1,-4.2687705E-1,6.3408524E-1,-1.3288782E0,-5.503229E-2,6.7905295E-1,-4.633851E-3,1.154203E0,1.0787776E0,7.7313654E-2,3.9764827E-1,-5.623257E-1,4.419211E-2,-4.066793E-3,-7.088498E-2,-1.8805701E-2,-5.454774E-2,7.8304857E-1,1.2697304E-2,5.9492964E-2,3.7306416E-4,6.1279174E-2,-4.5119345E-1,7.71428E-1,-1.0729069E0,7.6764697E-1,1.2348197E-1,-7.2158927E-1,-5.537321E-1,9.008298E-1,7.054652E-1,-1.0507354E0,1.0948843E0,-2.6200911E-2,1.7280005E-2,-7.072783E-2,-2.2720802E-1,1.0899886E0,-8.590894E-1,4.5220003E-1,3.2092524E-1,-8.500635E-1,1.804356E-2,-5.3633552E-2,-3.196368E-2,4.9201306E-2,4.9973574E-2,-1.9939438E-2,2.0186843E-2,-7.1538135E-2,1.072374E-2,5.851547E-2,4.7550756E-2,-5.9082773E-2,-2.5746752E-2,6.1437305E-2,4.561498E-2,-7.188126E-2,-3.921236E-2,3.5785444E-2,-6.1187733E-2,3.540855E-2,-7.043948E-2,-2.8035626E-2],"categories":[],"categories_nodes":[],"categories_segments":[],"categories_sizes":[],"default_left":[0,0,0,0,0,0,0,0,0,0,0,0,0,0,0,0,0,0,0,0,0,0,0,0,0,0,0,0,0,0,0,0,0,0,0,0,0,0,0,0,0,0,0,0,0,0,0,0,0,0,0,0,0,0,0,0,0,0,0,0,0,0,0,0,0,0,0,0,0,0,0,0,0,0,0],"id":20,"left_children":[1,3,5,-1,7,9,11,13,15,17,-1,19,21,23,25,-1,27,-1,29,31,33,35,37,-1,-1,-1,-1,-1,39,-1,-1,-1,-1,41,43,45,47,49,51,53,55,57,59,61,-1,-1,-1,63,65,67,69,71,73,-1,-1,-1,-1,-1,-1,-1,-1,-1,-1,-1,-1,-1,-1,-1,-1,-1,-1,-1,-1,-1,-1],"loss_changes":[4.7716103E1,1.4549046E1,2.9790087E1,0E0,1.3258427E1,6.52203E0,2.5355848E1,9.9811535E0,8.877218E0,1.7411804E0,0E0,9.314524E0,2.440224E1,8.2559717E-1,1.0181999E-1,0E0,8.43104E0,0E0,3.2137108E-1,2.2638302E0,1.0424494E1,1.776305E1,2.0444641E1,0E0,0E0,0E0,0E0,0E0,6.711649E0,0E0,0E0,0E0,0E0,1.1992863E1,5.7036667E0,3.7240648E0,8.411347E0,1.2008494E1,2.0549187E1,2.1975503E0,5.3244457E0,2.391114E0,6.706336E0,4.210348E-1,0E0,0E0,0E0,9.060115E0,4.952978E0,1.0907425E1,9.558001E0,1.1236155E1,2.1043793E1,0E0,0E0,0E0,0E0,0E0,0E0,0E0,0E0,0E0,0E0,0E0,0E0,0E0,0E0,0E0,0E0,0E0,0E0,0E0,0E0,0E0,0E0],"parents":[2147483647,0,0,1,1,2,2,4,4,5,5,6,6,7,7,8,8,9,9,11,11,12,12,13,13,14,14,16,16,18,18,19,19,20,20,21,21,22,22,28,28,33,33,34,34,35,35,36,36,37,37,38,38,39,39,40,40,41,41,42,42,43,43,47,47,48,48,49,49,50,50,51,51,52,52],"right_children":[2,4,6,-1,8,10,12,14,16,18,-1,20,22,24,26,-1,28,-1,30,32,34,36,38,-1,-1,-1,-1,-1,40,-1,-1,-1,-1,42,44,46,48,50,52,54,56,58,60,62,-1,-1,-1,64,66,68,70,72,74,-1,-1,-1,-1,-1,-1,-1,-1,-1,-1,-1,-1,-1,-1,-1,-1,-1,-1,-1,-1,-1,-1],"split_conditions":[1.75E2,1.75E2,1.31E2,5.9195247E-2,8E0,2.52E2,1.79E2,1.7E2,4E0,9.3E1,-2.7779574E-2,1.78E2,1.72E2,1.93E2,2.51E2,-5.503229E-2,1E0,-4.633851E-3,1.4E1,2E2,2.4E2,1.04E2,1.98E2,4.419211E-2,-4.066793E-3,-7.088498E-2,-1.8805701E-2,-5.454774E-2,1E0,1.2697304E-2,5.9492964E-2,3.7306416E-4,6.1279174E-2,1.84E2,2.45E2,1.77E2,1.95E2,1E0,1.75E2,1.86E2,8E0,2.07E2,1.74E2,1.69E2,-2.6200911E-2,1.7280005E-2,-7.072783E-2,2.03E2,1.79E2,1.92E2,1.92E2,7.6E1,1.06E2,1.804356E-2,-5.3633552E-2,-3.196368E-2,4.9201306E-2,4.9973574E-2,-1.9939438E-2,2.0186843E-2,-7.1538135E-2,1.072374E-2,5.851547E-2,4.7550756E-2,-5.9082773E-2,-2.5746752E-2,6.1437305E-2,4.561498E-2,-7.188126E-2,-3.921236E-2,3.5785444E-2,-6.1187733E-2,3.540855E-2,-7.043948E-2,-2.8035626E-2],"split_indices":[3731,2422,1949,0,98,3787,1097,3396,2089,4072,0,3933,219,985,753,0,2006,0,1654,1829,532,404,2399,0,0,0,0,0,1342,0,0,0,0,3212,729,594,1700,1729,3748,791,1165,1731,285,1720,0,0,0,1439,2791,28,3030,1409,2433,0,0,0,0,0,0,0,0,0,0,0,0,0,0,0,0,0,0,0,0,0,0],"split_type":[0,0,0,0,0,0,0,0,0,0,0,0,0,0,0,0,0,0,0,0,0,0,0,0,0,0,0,0,0,0,0,0,0,0,0,0,0,0,0,0,0,0,0,0,0,0,0,0,0,0,0,0,0,0,0,0,0,0,0,0,0,0,0,0,0,0,0,0,0,0,0,0,0,0,0],"sum_hessian":[3.6091016E2,8.390519E1,2.7700497E2,3.1899399E1,5.2005787E1,2.1587345E1,2.5541762E2,9.722232E0,4.2283558E1,1.9462027E1,2.125318E0,3.992005E1,2.1549756E2,3.2181737E0,6.504058E0,2.1218152E0,4.016174E1,1.0371867E0,1.8424839E1,1.345219E1,2.6467861E1,3.013275E1,1.853648E2,2.2109168E0,1.007257E0,5.50305E0,1.001008E0,1.7020708E0,3.845967E1,1.0113777E0,1.7413462E1,1.7478766E0,1.1704314E1,1.522519E1,1.1242672E1,5.675558E0,2.4457191E1,3.497651E1,1.503883E2,2.8145072E0,3.5645164E1,5.137349E0,1.0087841E1,9.120276E0,2.1223955E0,1.0993924E0,4.5761657E0,6.057337E0,1.8399855E1,8.363553E0,2.6612957E1,1.6335402E1,1.340529E2,1.1291089E0,1.6853985E0,1.4843044E0,3.416086E1,4.1320786E0,1.0052707E0,2.0768313E0,8.011009E0,1.0229781E0,8.097299E0,2.7124872E0,3.3448496E0,1.2484744E0,1.715138E1,1.9170194E0,6.4465337E0,4.328134E0,2.2284822E1,2.8413646E0,1.3494037E1,4.441684E1,8.963606E1],"tree_param":{"num_deleted":"0","num_feature":"4096","num_nodes":"75","size_leaf_vector":"1"}},{"base_weights":[4.9928953E-3,8.429598E-1,-1.4575282E-1,-4.256247E-2,9.305324E-1,5.8990926E-1,-2.8064254E-1,-6.9207907E-1,1.0167853E0,-6.1184462E-2,7.242673E-1,-7.566485E-1,-8.850664E-2,-4.7959115E-2,-2.762065E-3,-1.7824617E-1,1.0898942E0,-8.3566433E-1,8.568077E-1,5.4148894E-2,-9.113173E-1,-6.165587E-1,1.6255328E-1,-4.846713E-2,3.62107E-2,-5.035841E-3,1.1301085E0,-4.1893023E-4,-5.6586076E-2,-4.408809E-2,9.293276E-1,6.2481576E-1,-1.0510662E0,4.603261E-1,-8.629214E-1,-1.0270069E0,2.9227203E-1,-4.7072386E-3,1.1599435E0,-3.0062363E-2,1.0052834E0,5.649201E-2,-4.342366E-2,2.2203381E-1,-1.2363551E0,-4.630462E-1,1.0292019E0,5.0892867E-2,-1.0163207E0,4.1713607E-2,-1.3463823E0,-1.091895E0,3.9642534E-1,1.309682E-2,5.888271E-2,-2.4199022E-2,5.34258E-2,-5.514006E-2,4.0047593E-2,1.0325802E-2,-6.777861E-2,3.770892E-2,-5.9789598E-2,1.23451995E-2,5.5589546E-2,2.8125862E-2,-6.0014248E-2,1.1942585E-3,-7.464782E-2,3.7739184E-2,-7.298128E-2,7.8498935E-3,4.9928892E-2],"categories":[],"categories_nodes":[],"categories_segments":[],"categories_sizes":[],"default_left":[0,0,0,0,0,0,0,0,0,0,0,0,0,0,0,0,0,0,0,0,0,0,0,0,0,0,0,0,0,0,0,0,0,0,0,0,0,0,0,0,0,0,0,0,0,0,0,0,0,0,0,0,0,0,0,0,0,0,0,0,0,0,0,0,0,0,0,0,0,0,0,0,0],"id":21,"left_children":[1,3,5,-1,7,9,11,13,15,-1,17,19,21,-1,-1,23,25,27,29,-1,31,33,35,-1,-1,-1,37,-1,-1,-1,39,41,43,45,47,49,51,-1,53,-1,55,-1,-1,57,59,61,63,-1,65,-1,67,69,71,-1,-1,-1,-1,-1,-1,-1,-1,-1,-1,-1,-1,-1,-1,-1,-1,-1,-1,-1,-1],"loss_changes":[4.5151268E1,8.877506E0,3.0229958E1,0E0,8.022705E0,1.2403736E1,2.3410322E1,4.9721646E-1,4.5679626E0,0E0,9.944338E0,2.1953114E1,2.4495506E1,0E0,0E0,3.3760343E0,2.3792572E0,9.706147E-1,6.068535E0,0E0,1.5364941E1,1.6184202E1,1.9667274E1,0E0,0E0,0E0,1.7839546E0,0E0,0E0,0E0,5.307274E0,5.762893E0,1.5176727E1,6.6385818E0,1.5106365E1,8.590864E0,1.6860075E1,0E0,4.0460968E-1,0E0,4.181698E0,0E0,0E0,7.6894255E0,9.792374E0,5.5056705E0,2.1452618E-1,0E0,1.3918705E1,0E0,2.2660522E0,6.697603E0,1.5227299E1,0E0,0E0,0E0,0E0,0E0,0E0,0E0,0E0,0E0,0E0,0E0,0E0,0E0,0E0,0E0,0E0,0E0,0E0,0E0,0E0],"parents":[2147483647,0,0,1,1,2,2,4,4,5,5,6,6,7,7,8,8,10,10,11,11,12,12,15,15,16,16,17,17,18,18,20,20,21,21,22,22,26,26,30,30,31,31,32,32,33,33,34,34,35,35,36,36,38,38,40,40,43,43,44,44,45,45,46,46,48,48,50,50,51,51,52,52],"right_children":[2,4,6,-1,8,10,12,14,16,-1,18,20,22,-1,-1,24,26,28,30,-1,32,34,36,-1,-1,-1,38,-1,-1,-1,40,42,44,46,48,50,52,-1,54,-1,56,-1,-1,58,60,62,64,-1,66,-1,68,70,72,-1,-1,-1,-1,-1,-1,-1,-1,-1,-1,-1,-1,-1,-1,-1,-1,-1,-1,-1,-1],"split_conditions":[1.7E2,1E0,1.81E2,-4.256247E-2,2E0,1E0,3E0,2.31E2,1E0,-6.1184462E-2,1E0,1.66E2,3E0,-4.7959115E-2,-2.762065E-3,2.46E2,1E0,1.97E2,1E0,5.4148894E-2,5E0,1.69E2,1.65E2,-4.846713E-2,3.62107E-2,-5.035841E-3,1E0,-4.1893023E-4,-5.6586076E-2,-4.408809E-2,2E0,2.4E2,1.76E2,2.17E2,5E0,1.48E2,7.1E1,-4.7072386E-3,1E0,-3.0062363E-2,3E0,5.649201E-2,-4.342366E-2,2.05E2,1.52E2,2.01E2,2.7E1,5.0892867E-2,4.6E1,4.1713607E-2,1.96E2,1.96E2,2.53E2,1.309682E-2,5.888271E-2,-2.4199022E-2,5.34258E-2,-5.514006E-2,4.0047593E-2,1.0325802E-2,-6.777861E-2,3.770892E-2,-5.9789598E-2,1.23451995E-2,5.5589546E-2,2.8125862E-2,-6.0014248E-2,1.1942585E-3,-7.464782E-2,3.7739184E-2,-7.298128E-2,7.8498935E-3,4.9928892E-2],"split_indices":[347,2483,3121,0,3884,807,2046,128,1264,0,2508,1797,2049,0,0,332,1363,861,2419,0,3206,3506,32,0,0,0,918,0,0,0,1211,2852,2632,1635,3609,1631,4063,0,3239,0,1047,0,0,1819,1638,1645,821,0,2862,0,3169,512,1113,0,0,0,0,0,0,0,0,0,0,0,0,0,0,0,0,0,0,0,0],"split_type":[0,0,0,0,0,0,0,0,0,0,0,0,0,0,0,0,0,0,0,0,0,0,0,0,0,0,0,0,0,0,0,0,0,0,0,0,0,0,0,0,0,0,0,0,0,0,0,0,0,0,0,0,0,0,0,0,0,0,0,0,0,0,0,0,0,0,0,0,0,0,0,0,0],"sum_hessian":[3.5546317E2,5.3496166E1,3.01967E2,2.2006738E0,5.129549E1,4.626632E1,2.557007E2,2.2345579E0,4.9060932E1,2.631949E0,4.363437E1,7.268632E1,1.8301437E2,1.2176749E0,1.016883E0,2.7454813E0,4.6315453E1,3.001641E0,4.063273E1,5.17175E0,6.7514565E1,